Language model created by QuickLM on Wed Mar 17 12:51:41 EDT 2021
Copyright (c) 1996-2010 Carnegie Mellon University and Alexander I. Rudnicky

The model is in standard ARPA format, designed by Doug Paul while he was at MITRE.

The code that was used to produce this language model is available in Open Source.
Please visit http://www.speech.cs.cmu.edu/tools/ for more information

The (fixed) discount mass is 0.5. The backoffs are computed using the ratio method.
This model based on a corpus of 31343 sentences and 236 words

\data\
ngram 1=236
ngram 2=5920
ngram 3=34949

\1-grams:
-1.7218 1 -0.1307
-2.1866 10 -0.1467
-4.6683 100 -0.2281
-4.5591 101 -0.2173
-4.0363 102 -0.1621
-4.1517 103 -0.1752
-3.9571 104 -0.1552
-3.8506 105 -0.1490
-3.8232 106 -0.1479
-3.8699 107 -0.1499
-4.3373 108 -0.1969
-4.0082 109 -0.1594
-2.1905 11 -0.1460
-4.6103 110 -0.2208
-4.4720 111 -0.2102
-4.4720 112 -0.2102
-4.5134 113 -0.2137
-4.5591 114 -0.2173
-4.2346 115 -0.1856
-4.2124 116 -0.1829
-5.0363 117 -0.2397
-4.0363 118 -0.1621
-3.2654 119 -0.1417
-2.2183 12 -0.1458
-4.6103 120 -0.2208
-4.5591 121 -0.2173
-4.5134 122 -0.2137
-4.8144 123 -0.2318
-4.5591 124 -0.2173
-4.7352 125 -0.2281
-4.6683 126 -0.2246
-4.7352 127 -0.2281
-4.6683 128 -0.2246
-4.5591 129 -0.2173
-2.2178 13 -0.1453
-4.5591 130 -0.2173
-4.9113 131 -0.2357
-4.2346 132 -0.1856
-4.9113 133 -0.2357
-4.9113 134 -0.2357
-4.1710 135 -0.1777
-4.0820 136 -0.1669
-4.5134 137 -0.2137
-4.5591 138 -0.2173
-4.1154 139 -0.1707
-2.2296 14 -0.1447
-4.3373 140 -0.1969
-4.4720 141 -0.2102
-4.5591 142 -0.2173
-4.3994 143 -0.2035
-4.3093 144 -0.1939
-4.1710 145 -0.1777
-4.4720 146 -0.2102
-4.1912 147 -0.1804
-4.3373 148 -0.1969
-4.5134 149 -0.2137
-2.2586 15 -0.1454
-4.6683 150 -0.2246
-5.5134 151 -0.2571
-5.5134 152 -0.2571
-5.5134 153 -0.2571
-5.5134 154 -0.2571
-5.5134 155 -0.2571
-5.5134 156 -0.2571
-5.5134 157 -0.2571
-5.5134 158 -0.2571
-5.5134 159 -0.2571
-2.2881 16 -0.1454
-5.5134 160 -0.2571
-5.5134 161 -0.2571
-5.5134 162 -0.2571
-5.5134 163 -0.2571
-5.5134 164 -0.2571
-5.5134 165 -0.2571
-5.5134 166 -0.2571
-5.5134 167 -0.2571
-5.5134 168 -0.2571
-5.5134 169 -0.2571
-2.3298 17 -0.1459
-5.5134 170 -0.2571
-5.5134 171 -0.2571
-5.5134 172 -0.2571
-5.5134 173 -0.2571
-5.5134 174 -0.2571
-5.5134 175 -0.2571
-5.5134 176 -0.2571
-2.3076 18 -0.1469
-2.3304 19 -0.1469
-1.7799 2 -0.1313
-2.3490 20 -0.1479
-2.3408 21 -0.1487
-2.3556 22 -0.1448
-2.4025 23 -0.1461
-2.4360 24 -0.1450
-2.4796 25 -0.1463
-2.4934 26 -0.1446
-2.5361 27 -0.1451
-2.5616 28 -0.1449
-2.6108 29 -0.1487
-2.0943 3 -0.1416
-2.6483 30 -0.1499
-2.6548 31 -0.1464
-2.6985 32 -0.1467
-2.7374 33 -0.1461
-2.7762 34 -0.1535
-2.8469 35 -0.1552
-2.8312 36 -0.1499
-2.8840 37 -0.1515
-2.9234 38 -0.1509
-2.9858 39 -0.1499
-2.1200 4 -0.1464
-2.9464 40 -0.1475
-3.0165 41 -0.1460
-3.0836 42 -0.1528
-3.1386 43 -0.1528
-3.0951 44 -0.1561
-3.2059 45 -0.1635
-3.1953 46 -0.1561
-3.2753 47 -0.1594
-3.1710 48 -0.1483
-3.2278 49 -0.1522
-2.1442 5 -0.1479
-3.2728 50 -0.1487
-3.2779 51 -0.1453
-3.4489 52 -0.1561
-3.6683 53 -0.2035
-3.6501 54 -0.1884
-3.6269 55 -0.1707
-3.7072 56 -0.1969
-3.6873 57 -0.1777
-3.7652 58 -0.1969
-3.6938 59 -0.1777
-2.1564 6 -0.1448
-3.7352 60 -0.1752
-3.8799 61 -0.2067
-3.8321 62 -0.2002
-3.7891 63 -0.1829
-3.8901 64 -0.2067
-3.7575 65 -0.1688
-3.7281 66 -0.1707
-4.1912 67 -0.2173
-3.8321 68 -0.1543
-3.8232 69 -0.1535
-2.1416 7 -0.1439
-4.2829 70 -0.2246
-3.9819 71 -0.1707
-4.0662 72 -0.1804
-3.9949 73 -0.1635
-4.0662 74 -0.1729
-4.3093 75 -0.2067
-4.2829 76 -0.2002
-4.1154 77 -0.1777
-3.6326 78 -0.1447
-4.2829 79 -0.2002
-2.1708 8 -0.1451
-4.1332 80 -0.1804
-4.2124 81 -0.1884
-4.4720 82 -0.2173
-4.1710 83 -0.1829
-4.3093 84 -0.2002
-4.2829 85 -0.1969
-4.2124 86 -0.1884
-4.5134 87 -0.2208
-4.1710 88 -0.1829
-3.7652 89 -0.1465
-2.1692 9 -0.1455
-4.2346 90 -0.1884
-4.2581 91 -0.1910
-4.2581 92 -0.1910
-4.6683 93 -0.2281
-4.1154 94 -0.1729
-4.3994 95 -0.2067
-4.3373 96 -0.2002
-4.3673 97 -0.2035
-4.4720 98 -0.2137
-4.4720 99 -0.2137
-1.0172 </s> -0.3010
-1.0172 <s> -0.2448
-2.5108 ACTS -0.2174
-3.3490 AMOS -0.2619
-2.2669 CHRONICLES -0.2092
-3.5357 COLOSSIANS -0.2782
-2.6726 CORINTHIANS -0.2417
-2.7891 DANIEL -0.2470
-2.5271 DEUTERONOMY -0.2108
-3.1670 ECCLESIASTES -0.2528
-3.3230 EPHESIANS -0.2717
-3.2907 ESTHER -0.2588
-2.4295 EXODUS -0.2067
-2.4086 EZEKIEL -0.2036
-3.0662 EZRA -0.2588
-3.3402 GALATIANS -0.2717
-2.3267 GENESIS -0.2030
-3.7652 HABAKKUK -0.2817
-3.9336 HAGGAI -0.2853
-3.0319 HEBREWS -0.2499
-3.2189 HOSEA -0.2470
-2.3991 ISAIAH -0.2011
-3.4800 JAMES -0.2749
-2.3786 JEREMIAH -0.2025
-2.4848 JOB -0.2057
-3.6501 JOEL -0.2782
-2.5082 JOHN -0.2299
-3.8321 JONAH -0.2782
-2.6952 JOSHUA -0.2237
-4.1154 JUDE -0.2927
-2.7224 JUDGES -0.2299
-2.3270 KINGS -0.2220
-3.3259 LAMENTATIONS -0.2749
-2.5794 LEVITICUS -0.2188
-2.4523 LUKE -0.2237
-3.7281 MALACHI -0.2782
-2.6822 MARK -0.2417
-2.4836 MATTHEW -0.2174
-3.4922 MICAH -0.2683
-3.8413 NAHUM -0.2817
-2.9059 NEHEMIAH -0.2499
-2.4031 NUMBERS -0.2092
-4.1912 OBADIAH -0.2927
-3.4452 OF -0.3009
-3.2933 PETER -0.2749
-4.1154 PHILEMON -0.2927
-3.4963 PHILIPPIANS -0.2782
-2.5520 PROVERBS -0.2137
-2.1122 PSALMS -0.1982
-2.9070 REVELATION -0.2277
-2.8769 ROMANS -0.2417
-3.5840 RUTH -0.2782
-2.3358 SAMUEL -0.2137
-3.4452 SOLOMON -0.2651
-3.4452 SONG -0.3009
-3.4378 THESSALONIANS -0.2749
-3.2211 TIMOTHY -0.2717
-3.8506 TITUS -0.2817
-3.1891 ZECHARIAH -0.2470
-3.7891 ZEPHANIAH -0.2817

\2-grams:
-2.2730 1 1 -0.2571
-2.2864 1 10 -0.1677
-2.3002 1 11 -0.1691
-2.3144 1 12 -0.1626
-2.3217 1 13 -0.1661
-2.3292 1 14 -0.1662
-2.3522 1 15 -0.1625
-2.3766 1 16 -0.1565
-2.4024 1 17 -0.1444
-2.4394 1 18 -0.1622
-2.5015 1 19 -0.1618
-2.2730 1 2 -0.2504
-2.5128 1 20 -0.1597
-2.5485 1 21 -0.1706
-2.5874 1 22 -0.1753
-2.6612 1 23 -0.1706
-2.6776 1 24 -0.1704
-2.7124 1 25 -0.1637
-2.7916 1 26 -0.1718
-2.8138 1 27 -0.1648
-2.8621 1 28 -0.1691
-2.9165 1 29 -0.1634
-2.2730 1 3 -0.1894
-2.9465 1 30 -0.1639
-2.9786 1 31 -0.1729
-3.0926 1 32 -0.1750
-3.1383 1 33 -0.1724
-3.1895 1 34 -0.1745
-3.1895 1 35 -0.1634
-3.1895 1 36 -0.1847
-3.2475 1 37 -0.1781
-3.2475 1 38 -0.1787
-3.2475 1 39 -0.1731
-2.2730 1 4 -0.1820
-3.2475 1 40 -0.1934
-3.2475 1 41 -0.1879
-3.2475 1 42 -0.1756
-3.2475 1 43 -0.1668
-3.2475 1 44 -0.1966
-3.2475 1 45 -0.1754
-3.3144 1 46 -0.1857
-3.3936 1 47 -0.1753
-3.3936 1 48 -0.2151
-3.3936 1 49 -0.2086
-2.2730 1 5 -0.1742
-3.3936 1 50 -0.2066
-3.3936 1 51 -0.2116
-3.4905 1 52 -0.1811
-3.4905 1 53 -0.1043
-3.6155 1 54 -0.1323
-4.0926 1 55 -0.1704
-4.0926 1 56 -0.1481
-4.0926 1 57 -0.1739
-4.0926 1 58 -0.1656
-4.0926 1 59 -0.2016
-2.2730 1 6 -0.1712
-4.0926 1 60 -0.2041
-4.0926 1 61 -0.1659
-4.0926 1 62 -0.1821
-4.0926 1 63 -0.2000
-4.0926 1 64 -0.1829
-4.0926 1 65 -0.2264
-4.0926 1 66 -0.2359
-4.0926 1 67 -0.1402
-4.0926 1 68 -0.2430
-4.0926 1 69 -0.2443
-2.2797 1 7 -0.1777
-4.0926 1 70 -0.1313
-4.0926 1 71 -0.2319
-4.0926 1 72 -0.2341
-4.0926 1 73 -0.2668
-4.0926 1 74 -0.2604
-4.0926 1 75 -0.2272
-4.0926 1 76 -0.2467
-4.0926 1 77 -0.2648
-4.0926 1 78 -0.2894
-4.0926 1 79 -0.2467
-2.2797 1 8 -0.1687
-4.0926 1 80 -0.2632
-2.2797 1 9 -0.1714
-1.0167 1 </s> -0.3010
-1.1227 1 CHRONICLES -0.0440
-1.4521 1 CORINTHIANS 0.0000
-2.0714 1 JOHN -0.2196
-1.1804 1 KINGS -0.0239
-2.0714 1 PETER 0.0000
-1.1841 1 SAMUEL 0.0000
-2.1432 1 THESSALONIANS 0.0000
-2.0395 1 TIMOTHY 0.0000
-2.0715 10 1 -0.2571
-2.0837 10 10 -0.1677
-2.0837 10 11 -0.1691
-2.0963 10 12 -0.1626
-2.1093 10 13 -0.1661
-2.1093 10 14 -0.1662
-2.1226 10 15 -0.1625
-2.1364 10 16 -0.1565
-2.1364 10 17 -0.1444
-2.1364 10 18 -0.1622
-2.1806 10 19 -0.1618
-2.0715 10 2 -0.2504
-2.2128 10 20 -0.1597
-2.2476 10 21 -0.1706
-2.2854 10 22 -0.1753
-2.3490 10 23 -0.1706
-2.3490 10 24 -0.1704
-2.3490 10 25 -0.1637
-2.3725 10 26 -0.1718
-2.3725 10 27 -0.1648
-2.3973 10 28 -0.1691
-2.3973 10 29 -0.1634
-2.0715 10 3 -0.1894
-2.4517 10 30 -0.1639
-2.4517 10 31 -0.1729
-2.4517 10 32 -0.1750
-2.5138 10 33 -0.1724
-2.5486 10 34 -0.1745
-2.5864 10 35 -0.1634
-2.5864 10 36 -0.1847
-2.6735 10 37 -0.1781
-2.6735 10 38 -0.1787
-2.6735 10 39 -0.1731
-2.0837 10 4 -0.1820
-2.7247 10 40 -0.1934
-2.7827 10 41 -0.1879
-2.7827 10 42 -0.1756
-3.0257 10 43 -0.1668
-3.1507 10 44 -0.1966
-3.3267 10 45 -0.1754
-3.3267 10 46 -0.1857
-3.3267 10 47 -0.1753
-3.3267 10 48 -0.2151
-3.6278 10 49 -0.2086
-2.0837 10 5 -0.1742
-3.6278 10 50 -0.2066
-3.6278 10 51 -0.2116
-3.6278 10 52 -0.1811
-2.0837 10 6 -0.1712
-2.0837 10 7 -0.1777
-2.0837 10 8 -0.1687
-2.0837 10 9 -0.1714
-0.5778 10 </s> -0.3010
-1.1461 100 1 -0.2571
-1.1461 100 2 -0.2504
-1.1461 100 3 -0.1894
-1.1461 100 4 -0.1820
-1.1461 100 5 -0.1742
-0.8451 100 </s> -0.3010
-1.2553 101 1 -0.2571
-1.2553 101 2 -0.2504
-1.2553 101 3 -0.1894
-1.2553 101 4 -0.1820
-1.2553 101 5 -0.1742
-1.2553 101 6 -0.1712
-1.2553 101 7 -0.1777
-1.2553 101 8 -0.1687
-1.2553 101 </s> -0.3010
-1.7782 102 1 -0.2571
-1.7782 102 10 -0.1677
-1.7782 102 11 -0.1691
-1.7782 102 12 -0.1626
-1.7782 102 13 -0.1661
-1.7782 102 14 -0.1662
-1.7782 102 15 -0.1625
-1.7782 102 16 -0.1565
-1.7782 102 17 -0.1444
-1.7782 102 18 -0.1622
-1.7782 102 19 -0.1618
-1.7782 102 2 -0.2504
-1.7782 102 20 -0.1597
-1.7782 102 21 -0.1706
-1.7782 102 22 -0.1753
-1.7782 102 23 -0.1706
-1.7782 102 24 -0.1704
-1.7782 102 25 -0.1637
-1.7782 102 26 -0.1718
-1.7782 102 27 -0.1648
-1.7782 102 28 -0.1691
-1.7782 102 29 -0.1634
-1.7782 102 3 -0.1894
-1.7782 102 4 -0.1820
-1.7782 102 5 -0.1742
-1.7782 102 6 -0.1712
-1.7782 102 7 -0.1777
-1.7782 102 8 -0.1687
-1.7782 102 9 -0.1714
-1.7782 102 </s> -0.3010
-1.6628 103 1 -0.2571
-1.6628 103 10 -0.1677
-1.6628 103 11 -0.1691
-1.6628 103 12 -0.1626
-1.6628 103 13 -0.1661
-1.6628 103 14 -0.1662
-1.6628 103 15 -0.1625
-1.6628 103 16 -0.1565
-1.6628 103 17 -0.1444
-1.6628 103 18 -0.1622
-1.6628 103 19 -0.1618
-1.6628 103 2 -0.2504
-1.6628 103 20 -0.1597
-1.6628 103 21 -0.1706
-1.6628 103 22 -0.1753
-1.6628 103 3 -0.1894
-1.6628 103 4 -0.1820
-1.6628 103 5 -0.1742
-1.6628 103 6 -0.1712
-1.6628 103 7 -0.1777
-1.6628 103 8 -0.1687
-1.6628 103 9 -0.1714
-1.6628 103 </s> -0.3010
-1.8573 104 1 -0.2571
-1.8573 104 10 -0.1677
-1.8573 104 11 -0.1691
-1.8573 104 12 -0.1626
-1.8573 104 13 -0.1661
-1.8573 104 14 -0.1662
-1.8573 104 15 -0.1625
-1.8573 104 16 -0.1565
-1.8573 104 17 -0.1444
-1.8573 104 18 -0.1622
-1.8573 104 19 -0.1618
-1.8573 104 2 -0.2504
-1.8573 104 20 -0.1597
-1.8573 104 21 -0.1706
-1.8573 104 22 -0.1753
-1.8573 104 23 -0.1706
-1.8573 104 24 -0.1704
-1.8573 104 25 -0.1637
-1.8573 104 26 -0.1718
-1.8573 104 27 -0.1648
-1.8573 104 28 -0.1691
-1.8573 104 29 -0.1634
-1.8573 104 3 -0.1894
-1.8573 104 30 -0.1639
-1.8573 104 31 -0.1729
-1.8573 104 32 -0.1750
-1.8573 104 33 -0.1724
-1.8573 104 34 -0.1745
-1.8573 104 35 -0.1634
-1.8573 104 4 -0.1820
-1.8573 104 5 -0.1742
-1.8573 104 6 -0.1712
-1.8573 104 7 -0.1777
-1.8573 104 8 -0.1687
-1.8573 104 9 -0.1714
-1.8573 104 </s> -0.3010
-1.9638 105 1 -0.2571
-1.9638 105 10 -0.1677
-1.9638 105 11 -0.1691
-1.9638 105 12 -0.1626
-1.9638 105 13 -0.1661
-1.9638 105 14 -0.1662
-1.9638 105 15 -0.1625
-1.9638 105 16 -0.1565
-1.9638 105 17 -0.1444
-1.9638 105 18 -0.1622
-1.9638 105 19 -0.1618
-1.9638 105 2 -0.2504
-1.9638 105 20 -0.1597
-1.9638 105 21 -0.1706
-1.9638 105 22 -0.1753
-1.9638 105 23 -0.1706
-1.9638 105 24 -0.1704
-1.9638 105 25 -0.1637
-1.9638 105 26 -0.1718
-1.9638 105 27 -0.1648
-1.9638 105 28 -0.1691
-1.9638 105 29 -0.1634
-1.9638 105 3 -0.1894
-1.9638 105 30 -0.1639
-1.9638 105 31 -0.1729
-1.9638 105 32 -0.1750
-1.9638 105 33 -0.1724
-1.9638 105 34 -0.1745
-1.9638 105 35 -0.1634
-1.9638 105 36 -0.1847
-1.9638 105 37 -0.1781
-1.9638 105 38 -0.1787
-1.9638 105 39 -0.1731
-1.9638 105 4 -0.1820
-1.9638 105 40 -0.1934
-1.9638 105 41 -0.1879
-1.9638 105 42 -0.1756
-1.9638 105 43 -0.1668
-1.9638 105 44 -0.1966
-1.9638 105 45 -0.1754
-1.9638 105 5 -0.1742
-1.9638 105 6 -0.1712
-1.9638 105 7 -0.1777
-1.9638 105 8 -0.1687
-1.9638 105 9 -0.1714
-1.9638 105 </s> -0.3010
-1.9912 106 1 -0.2571
-1.9912 106 10 -0.1677
-1.9912 106 11 -0.1691
-1.9912 106 12 -0.1626
-1.9912 106 13 -0.1661
-1.9912 106 14 -0.1662
-1.9912 106 15 -0.1625
-1.9912 106 16 -0.1565
-1.9912 106 17 -0.1444
-1.9912 106 18 -0.1622
-1.9912 106 19 -0.1618
-1.9912 106 2 -0.2504
-1.9912 106 20 -0.1597
-1.9912 106 21 -0.1706
-1.9912 106 22 -0.1753
-1.9912 106 23 -0.1706
-1.9912 106 24 -0.1704
-1.9912 106 25 -0.1637
-1.9912 106 26 -0.1718
-1.9912 106 27 -0.1648
-1.9912 106 28 -0.1691
-1.9912 106 29 -0.1634
-1.9912 106 3 -0.1894
-1.9912 106 30 -0.1639
-1.9912 106 31 -0.1729
-1.9912 106 32 -0.1750
-1.9912 106 33 -0.1724
-1.9912 106 34 -0.1745
-1.9912 106 35 -0.1634
-1.9912 106 36 -0.1847
-1.9912 106 37 -0.1781
-1.9912 106 38 -0.1787
-1.9912 106 39 -0.1731
-1.9912 106 4 -0.1820
-1.9912 106 40 -0.1934
-1.9912 106 41 -0.1879
-1.9912 106 42 -0.1756
-1.9912 106 43 -0.1668
-1.9912 106 44 -0.1966
-1.9912 106 45 -0.1754
-1.9912 106 46 -0.1857
-1.9912 106 47 -0.1753
-1.9912 106 48 -0.2151
-1.9912 106 5 -0.1742
-1.9912 106 6 -0.1712
-1.9912 106 7 -0.1777
-1.9912 106 8 -0.1687
-1.9912 106 9 -0.1714
-1.9912 106 </s> -0.3010
-1.9445 107 1 -0.2571
-1.9445 107 10 -0.1677
-1.9445 107 11 -0.1691
-1.9445 107 12 -0.1626
-1.9445 107 13 -0.1661
-1.9445 107 14 -0.1662
-1.9445 107 15 -0.1625
-1.9445 107 16 -0.1565
-1.9445 107 17 -0.1444
-1.9445 107 18 -0.1622
-1.9445 107 19 -0.1618
-1.9445 107 2 -0.2504
-1.9445 107 20 -0.1597
-1.9445 107 21 -0.1706
-1.9445 107 22 -0.1753
-1.9445 107 23 -0.1706
-1.9445 107 24 -0.1704
-1.9445 107 25 -0.1637
-1.9445 107 26 -0.1718
-1.9445 107 27 -0.1648
-1.9445 107 28 -0.1691
-1.9445 107 29 -0.1634
-1.9445 107 3 -0.1894
-1.9445 107 30 -0.1639
-1.9445 107 31 -0.1729
-1.9445 107 32 -0.1750
-1.9445 107 33 -0.1724
-1.9445 107 34 -0.1745
-1.9445 107 35 -0.1634
-1.9445 107 36 -0.1847
-1.9445 107 37 -0.1781
-1.9445 107 38 -0.1787
-1.9445 107 39 -0.1731
-1.9445 107 4 -0.1820
-1.9445 107 40 -0.1934
-1.9445 107 41 -0.1879
-1.9445 107 42 -0.1756
-1.9445 107 43 -0.1668
-1.9445 107 5 -0.1742
-1.9445 107 6 -0.1712
-1.9445 107 7 -0.1777
-1.9445 107 8 -0.1687
-1.9445 107 9 -0.1714
-1.9445 107 </s> -0.3010
-1.4771 108 1 -0.2571
-1.4771 108 10 -0.1677
-1.4771 108 11 -0.1691
-1.4771 108 12 -0.1626
-1.4771 108 13 -0.1661
-1.4771 108 14 -0.1662
-1.4771 108 2 -0.2504
-1.4771 108 3 -0.1894
-1.4771 108 4 -0.1820
-1.4771 108 5 -0.1742
-1.4771 108 6 -0.1712
-1.4771 108 7 -0.1777
-1.4771 108 8 -0.1687
-1.4771 108 9 -0.1714
-1.4771 108 </s> -0.3010
-1.8062 109 1 -0.2571
-1.8062 109 10 -0.1677
-1.8062 109 11 -0.1691
-1.8062 109 12 -0.1626
-1.8062 109 13 -0.1661
-1.8062 109 14 -0.1662
-1.8062 109 15 -0.1625
-1.8062 109 16 -0.1565
-1.8062 109 17 -0.1444
-1.8062 109 18 -0.1622
-1.8062 109 19 -0.1618
-1.8062 109 2 -0.2504
-1.8062 109 20 -0.1597
-1.8062 109 21 -0.1706
-1.8062 109 22 -0.1753
-1.8062 109 23 -0.1706
-1.8062 109 24 -0.1704
-1.8062 109 25 -0.1637
-1.8062 109 26 -0.1718
-1.8062 109 27 -0.1648
-1.8062 109 28 -0.1691
-1.8062 109 29 -0.1634
-1.8062 109 3 -0.1894
-1.8062 109 30 -0.1639
-1.8062 109 31 -0.1729
-1.8062 109 4 -0.1820
-1.8062 109 5 -0.1742
-1.8062 109 6 -0.1712
-1.8062 109 7 -0.1777
-1.8062 109 8 -0.1687
-1.8062 109 9 -0.1714
-1.8062 109 </s> -0.3010
-2.0924 11 1 -0.2571
-2.1054 11 10 -0.1677
-2.1325 11 11 -0.1691
-2.1467 11 12 -0.1626
-2.1467 11 13 -0.1661
-2.1467 11 14 -0.1662
-2.1467 11 15 -0.1625
-2.1615 11 16 -0.1565
-2.1767 11 17 -0.1444
-2.1925 11 18 -0.1622
-2.1925 11 19 -0.1618
-2.0924 11 2 -0.2504
-2.2089 11 20 -0.1597
-2.2437 11 21 -0.1706
-2.2437 11 22 -0.1753
-2.2437 11 23 -0.1706
-2.3016 11 24 -0.1704
-2.3016 11 25 -0.1637
-2.3228 11 26 -0.1718
-2.3228 11 27 -0.1648
-2.3451 11 28 -0.1691
-2.3451 11 29 -0.1634
-2.0924 11 3 -0.1894
-2.3451 11 30 -0.1639
-2.3934 11 31 -0.1729
-2.4197 11 32 -0.1750
-2.4777 11 33 -0.1724
-2.5447 11 34 -0.1745
-2.5825 11 35 -0.1634
-2.6239 11 36 -0.1847
-2.7208 11 37 -0.1781
-2.7208 11 38 -0.1787
-2.7208 11 39 -0.1731
-2.0924 11 4 -0.1820
-2.7208 11 40 -0.1934
-2.8457 11 41 -0.1879
-2.8457 11 42 -0.1756
-2.8457 11 43 -0.1668
-2.9249 11 44 -0.1966
-2.9249 11 45 -0.1754
-3.0218 11 46 -0.1857
-3.0218 11 47 -0.1753
-3.3228 11 48 -0.2151
-3.3228 11 49 -0.2086
-2.0924 11 5 -0.1742
-3.3228 11 50 -0.2066
-3.3228 11 51 -0.2116
-3.3228 11 52 -0.1811
-3.3228 11 53 -0.1043
-3.3228 11 54 -0.1323
-3.6239 11 55 -0.1704
-3.6239 11 56 -0.1481
-3.6239 11 57 -0.1739
-2.0924 11 6 -0.1712
-2.0924 11 7 -0.1777
-2.1054 11 8 -0.1687
-2.1054 11 9 -0.1714
-0.5817 11 </s> -0.3010
-1.2041 110 1 -0.2571
-1.2041 110 2 -0.2504
-1.2041 110 3 -0.1894
-1.2041 110 4 -0.1820
-1.2041 110 5 -0.1742
-1.2041 110 6 -0.1712
-1.2041 110 7 -0.1777
-1.2041 110 </s> -0.3010
-1.3424 111 1 -0.2571
-1.3424 111 10 -0.1677
-1.3424 111 2 -0.2504
-1.3424 111 3 -0.1894
-1.3424 111 4 -0.1820
-1.3424 111 5 -0.1742
-1.3424 111 6 -0.1712
-1.3424 111 7 -0.1777
-1.3424 111 8 -0.1687
-1.3424 111 9 -0.1714
-1.3424 111 </s> -0.3010
-1.3424 112 1 -0.2571
-1.3424 112 10 -0.1677
-1.3424 112 2 -0.2504
-1.3424 112 3 -0.1894
-1.3424 112 4 -0.1820
-1.3424 112 5 -0.1742
-1.3424 112 6 -0.1712
-1.3424 112 7 -0.1777
-1.3424 112 8 -0.1687
-1.3424 112 9 -0.1714
-1.3424 112 </s> -0.3010
-1.3010 113 1 -0.2571
-1.3010 113 2 -0.2504
-1.3010 113 3 -0.1894
-1.3010 113 4 -0.1820
-1.3010 113 5 -0.1742
-1.3010 113 6 -0.1712
-1.3010 113 7 -0.1777
-1.3010 113 8 -0.1687
-1.3010 113 9 -0.1714
-1.3010 113 </s> -0.3010
-1.2553 114 1 -0.2571
-1.2553 114 2 -0.2504
-1.2553 114 3 -0.1894
-1.2553 114 4 -0.1820
-1.2553 114 5 -0.1742
-1.2553 114 6 -0.1712
-1.2553 114 7 -0.1777
-1.2553 114 8 -0.1687
-1.2553 114 </s> -0.3010
-1.5798 115 1 -0.2571
-1.5798 115 10 -0.1677
-1.5798 115 11 -0.1691
-1.5798 115 12 -0.1626
-1.5798 115 13 -0.1661
-1.5798 115 14 -0.1662
-1.5798 115 15 -0.1625
-1.5798 115 16 -0.1565
-1.5798 115 17 -0.1444
-1.5798 115 18 -0.1622
-1.5798 115 2 -0.2504
-1.5798 115 3 -0.1894
-1.5798 115 4 -0.1820
-1.5798 115 5 -0.1742
-1.5798 115 6 -0.1712
-1.5798 115 7 -0.1777
-1.5798 115 8 -0.1687
-1.5798 115 9 -0.1714
-1.5798 115 </s> -0.3010
-1.6021 116 1 -0.2571
-1.6021 116 10 -0.1677
-1.6021 116 11 -0.1691
-1.6021 116 12 -0.1626
-1.6021 116 13 -0.1661
-1.6021 116 14 -0.1662
-1.6021 116 15 -0.1625
-1.6021 116 16 -0.1565
-1.6021 116 17 -0.1444
-1.6021 116 18 -0.1622
-1.6021 116 19 -0.1618
-1.6021 116 2 -0.2504
-1.6021 116 3 -0.1894
-1.6021 116 4 -0.1820
-1.6021 116 5 -0.1742
-1.6021 116 6 -0.1712
-1.6021 116 7 -0.1777
-1.6021 116 8 -0.1687
-1.6021 116 9 -0.1714
-1.6021 116 </s> -0.3010
-0.7782 117 1 -0.2571
-0.7782 117 2 -0.2504
-0.7782 117 </s> -0.3010
-1.7782 118 1 -0.2571
-1.7782 118 10 -0.1677
-1.7782 118 11 -0.1691
-1.7782 118 12 -0.1626
-1.7782 118 13 -0.1661
-1.7782 118 14 -0.1662
-1.7782 118 15 -0.1625
-1.7782 118 16 -0.1565
-1.7782 118 17 -0.1444
-1.7782 118 18 -0.1622
-1.7782 118 19 -0.1618
-1.7782 118 2 -0.2504
-1.7782 118 20 -0.1597
-1.7782 118 21 -0.1706
-1.7782 118 22 -0.1753
-1.7782 118 23 -0.1706
-1.7782 118 24 -0.1704
-1.7782 118 25 -0.1637
-1.7782 118 26 -0.1718
-1.7782 118 27 -0.1648
-1.7782 118 28 -0.1691
-1.7782 118 29 -0.1634
-1.7782 118 3 -0.1894
-1.7782 118 4 -0.1820
-1.7782 118 5 -0.1742
-1.7782 118 6 -0.1712
-1.7782 118 7 -0.1777
-1.7782 118 8 -0.1687
-1.7782 118 9 -0.1714
-1.7782 118 </s> -0.3010
-2.5490 119 1 -0.2571
-2.5490 119 10 -0.1677
-2.5490 119 100 -0.2341
-2.5490 119 101 -0.2762
-2.5490 119 102 -0.2937
-2.5490 119 103 -0.2915
-2.5490 119 104 -0.2950
-2.5490 119 105 -0.2963
-2.5490 119 106 -0.2966
-2.5490 119 107 -0.2961
-2.5490 119 108 -0.2863
-2.5490 119 109 -0.2942
-2.5490 119 11 -0.1691
-2.5490 119 110 -0.2730
-2.5490 119 111 -0.2808
-2.5490 119 112 -0.2808
-2.5490 119 113 -0.2788
-2.5490 119 114 -0.2762
-2.5490 119 115 -0.2894
-2.5490 119 116 -0.2900
-2.5490 119 117 -0.2218
-2.5490 119 118 -0.2937
-2.5490 119 119 -0.2998
-2.5490 119 12 -0.1626
-2.5490 119 120 -0.2730
-2.5490 119 121 -0.2762
-2.5490 119 122 -0.2788
-2.5490 119 123 -0.2553
-2.5490 119 124 -0.2762
-2.5490 119 125 -0.2632
-2.5490 119 126 -0.2688
-2.5490 119 127 -0.2632
-2.5490 119 128 -0.2688
-2.5490 119 129 -0.2762
-2.5490 119 13 -0.1661
-2.5490 119 130 -0.2762
-2.5490 119 131 -0.2430
-2.5490 119 132 -0.2894
-2.5490 119 133 -0.2430
-2.5490 119 134 -0.2430
-2.5490 119 135 -0.2910
-2.5490 119 136 -0.2929
-2.5490 119 137 -0.2788
-2.5490 119 138 -0.2762
-2.5490 119 139 -0.2923
-2.5490 119 14 -0.1662
-2.5490 119 140 -0.2863
-2.5490 119 141 -0.2808
-2.5490 119 142 -0.2762
-2.5490 119 143 -0.2840
-2.5490 119 144 -0.2872
-2.5490 119 145 -0.2910
-2.5490 119 146 -0.2808
-2.5490 119 147 -0.2906
-2.5490 119 148 -0.2863
-2.5490 119 149 -0.2788
-2.5490 119 15 -0.1625
-2.5490 119 150 -0.2688
-2.5490 119 151 0.0000
-2.5490 119 152 0.0000
-2.5490 119 153 0.0000
-2.5490 119 154 0.0000
-2.5490 119 155 0.0000
-2.5490 119 156 0.0000
-2.5490 119 157 0.0000
-2.5490 119 158 0.0000
-2.5490 119 159 0.0000
-2.5490 119 16 -0.1565
-2.5490 119 160 0.0000
-2.5490 119 161 0.0000
-2.5490 119 162 0.0000
-2.5490 119 163 0.0000
-2.5490 119 164 0.0000
-2.5490 119 165 0.0000
-2.5490 119 166 0.0000
-2.5490 119 167 0.0000
-2.5490 119 168 0.0000
-2.5490 119 169 0.0000
-2.5490 119 17 -0.1444
-2.5490 119 170 0.0000
-2.5490 119 171 0.0000
-2.5490 119 172 0.0000
-2.5490 119 173 0.0000
-2.5490 119 174 0.0000
-2.5490 119 175 0.0000
-2.5490 119 176 0.0000
-2.5490 119 18 -0.1622
-2.5490 119 19 -0.1618
-2.5490 119 2 -0.2504
-2.5490 119 20 -0.1597
-2.5490 119 21 -0.1706
-2.5490 119 22 -0.1753
-2.5490 119 23 -0.1706
-2.5490 119 24 -0.1704
-2.5490 119 25 -0.1637
-2.5490 119 26 -0.1718
-2.5490 119 27 -0.1648
-2.5490 119 28 -0.1691
-2.5490 119 29 -0.1634
-2.5490 119 3 -0.1894
-2.5490 119 30 -0.1639
-2.5490 119 31 -0.1729
-2.5490 119 32 -0.1750
-2.5490 119 33 -0.1724
-2.5490 119 34 -0.1745
-2.5490 119 35 -0.1634
-2.5490 119 36 -0.1847
-2.5490 119 37 -0.1781
-2.5490 119 38 -0.1787
-2.5490 119 39 -0.1731
-2.5490 119 4 -0.1820
-2.5490 119 40 -0.1934
-2.5490 119 41 -0.1879
-2.5490 119 42 -0.1756
-2.5490 119 43 -0.1668
-2.5490 119 44 -0.1966
-2.5490 119 45 -0.1754
-2.5490 119 46 -0.1857
-2.5490 119 47 -0.1753
-2.5490 119 48 -0.2151
-2.5490 119 49 -0.2086
-2.5490 119 5 -0.1742
-2.5490 119 50 -0.2066
-2.5490 119 51 -0.2116
-2.5490 119 52 -0.1811
-2.5490 119 53 -0.1043
-2.5490 119 54 -0.1323
-2.5490 119 55 -0.1704
-2.5490 119 56 -0.1481
-2.5490 119 57 -0.1739
-2.5490 119 58 -0.1656
-2.5490 119 59 -0.2016
-2.5490 119 6 -0.1712
-2.5490 119 60 -0.2041
-2.5490 119 61 -0.1659
-2.5490 119 62 -0.1821
-2.5490 119 63 -0.2000
-2.5490 119 64 -0.1829
-2.5490 119 65 -0.2264
-2.5490 119 66 -0.2359
-2.5490 119 67 -0.1402
-2.5490 119 68 -0.2430
-2.5490 119 69 -0.2443
-2.5490 119 7 -0.1777
-2.5490 119 70 -0.1313
-2.5490 119 71 -0.2319
-2.5490 119 72 -0.2341
-2.5490 119 73 -0.2668
-2.5490 119 74 -0.2604
-2.5490 119 75 -0.2272
-2.5490 119 76 -0.2467
-2.5490 119 77 -0.2648
-2.5490 119 78 -0.2894
-2.5490 119 79 -0.2467
-2.5490 119 8 -0.1687
-2.5490 119 80 -0.2632
-2.5490 119 81 -0.2672
-2.5490 119 82 -0.2374
-2.5490 119 83 -0.2704
-2.5490 119 84 -0.2583
-2.5490 119 85 -0.2609
-2.5490 119 86 -0.2672
-2.5490 119 87 -0.2304
-2.5490 119 88 -0.2704
-2.5490 119 89 -0.2892
-2.5490 119 9 -0.1714
-2.5490 119 90 -0.2775
-2.5490 119 91 -0.2762
-2.5490 119 92 -0.2762
-2.5490 119 93 -0.2341
-2.5490 119 94 -0.2833
-2.5490 119 95 -0.2663
-2.5490 119 96 -0.2711
-2.5490 119 97 -0.2688
-2.5490 119 98 -0.2596
-2.5490 119 99 -0.2596
-2.5490 119 </s> -0.3010
-2.0647 12 1 -0.2571
-2.1048 12 10 -0.1677
-2.1048 12 11 -0.1691
-2.1048 12 12 -0.1626
-2.1048 12 13 -0.1661
-2.1190 12 14 -0.1662
-2.1490 12 15 -0.1625
-2.1812 12 16 -0.1565
-2.2159 12 17 -0.1444
-2.2537 12 18 -0.1622
-2.2537 12 19 -0.1618
-2.0647 12 2 -0.2504
-2.2537 12 20 -0.1597
-2.2739 12 21 -0.1706
-2.3174 12 22 -0.1753
-2.3409 12 23 -0.1706
-2.3409 12 24 -0.1704
-2.3657 12 25 -0.1637
-2.4500 12 26 -0.1718
-2.4500 12 27 -0.1648
-2.4500 12 28 -0.1691
-2.5170 12 29 -0.1634
-2.0647 12 3 -0.1894
-2.5548 12 30 -0.1639
-2.5548 12 31 -0.1729
-2.6931 12 32 -0.1750
-2.6931 12 33 -0.1724
-2.7511 12 34 -0.1745
-2.7511 12 35 -0.1634
-2.7511 12 36 -0.1847
-2.7511 12 37 -0.1781
-2.7511 12 38 -0.1787
-2.7511 12 39 -0.1731
-2.0647 12 4 -0.1820
-2.7511 12 40 -0.1934
-2.7511 12 41 -0.1879
-2.8180 12 42 -0.1756
-2.8180 12 43 -0.1668
-2.8180 12 44 -0.1966
-2.8972 12 45 -0.1754
-2.8972 12 46 -0.1857
-2.8972 12 47 -0.1753
-2.9941 12 48 -0.2151
-2.9941 12 49 -0.2086
-2.0647 12 5 -0.1742
-2.9941 12 50 -0.2066
-3.2951 12 51 -0.2116
-3.5962 12 52 -0.1811
-3.5962 12 53 -0.1043
-3.5962 12 54 -0.1323
-3.5962 12 55 -0.1704
-3.5962 12 56 -0.1481
-3.5962 12 57 -0.1739
-3.5962 12 58 -0.1656
-3.5962 12 59 -0.2016
-2.0647 12 6 -0.1712
-2.0776 12 7 -0.1777
-2.0776 12 8 -0.1687
-2.0910 12 9 -0.1714
-0.5639 12 </s> -0.3010
-1.2041 120 1 -0.2571
-1.2041 120 2 -0.2504
-1.2041 120 3 -0.1894
-1.2041 120 4 -0.1820
-1.2041 120 5 -0.1742
-1.2041 120 6 -0.1712
-1.2041 120 7 -0.1777
-1.2041 120 </s> -0.3010
-1.2553 121 1 -0.2571
-1.2553 121 2 -0.2504
-1.2553 121 3 -0.1894
-1.2553 121 4 -0.1820
-1.2553 121 5 -0.1742
-1.2553 121 6 -0.1712
-1.2553 121 7 -0.1777
-1.2553 121 8 -0.1687
-1.2553 121 </s> -0.3010
-1.3010 122 1 -0.2571
-1.3010 122 2 -0.2504
-1.3010 122 3 -0.1894
-1.3010 122 4 -0.1820
-1.3010 122 5 -0.1742
-1.3010 122 6 -0.1712
-1.3010 122 7 -0.1777
-1.3010 122 8 -0.1687
-1.3010 122 9 -0.1714
-1.3010 122 </s> -0.3010
-1.0000 123 1 -0.2571
-1.0000 123 2 -0.2504
-1.0000 123 3 -0.1894
-1.0000 123 4 -0.1820
-1.0000 123 </s> -0.3010
-1.2553 124 1 -0.2571
-1.2553 124 2 -0.2504
-1.2553 124 3 -0.1894
-1.2553 124 4 -0.1820
-1.2553 124 5 -0.1742
-1.2553 124 6 -0.1712
-1.2553 124 7 -0.1777
-1.2553 124 8 -0.1687
-1.2553 124 </s> -0.3010
-1.0792 125 1 -0.2571
-1.0792 125 2 -0.2504
-1.0792 125 3 -0.1894
-1.0792 125 4 -0.1820
-1.0792 125 5 -0.1742
-1.0792 125 </s> -0.3010
-1.1461 126 1 -0.2571
-1.1461 126 2 -0.2504
-1.1461 126 3 -0.1894
-1.1461 126 4 -0.1820
-1.1461 126 5 -0.1742
-1.1461 126 6 -0.1712
-1.1461 126 </s> -0.3010
-1.0792 127 1 -0.2571
-1.0792 127 2 -0.2504
-1.0792 127 3 -0.1894
-1.0792 127 4 -0.1820
-1.0792 127 5 -0.1742
-1.0792 127 </s> -0.3010
-1.1461 128 1 -0.2571
-1.1461 128 2 -0.2504
-1.1461 128 3 -0.1894
-1.1461 128 4 -0.1820
-1.1461 128 5 -0.1742
-1.1461 128 6 -0.1712
-1.1461 128 </s> -0.3010
-1.2553 129 1 -0.2571
-1.2553 129 2 -0.2504
-1.2553 129 3 -0.1894
-1.2553 129 4 -0.1820
-1.2553 129 5 -0.1742
-1.2553 129 6 -0.1712
-1.2553 129 7 -0.1777
-1.2553 129 8 -0.1687
-1.2553 129 </s> -0.3010
-2.0781 13 1 -0.2571
-2.1052 13 10 -0.1677
-2.1052 13 11 -0.1691
-2.1052 13 12 -0.1626
-2.1052 13 13 -0.1661
-2.1342 13 14 -0.1662
-2.1652 13 15 -0.1625
-2.1816 13 16 -0.1565
-2.1816 13 17 -0.1444
-2.1816 13 18 -0.1622
-2.2164 13 19 -0.1618
-2.0781 13 2 -0.2504
-2.2349 13 20 -0.1597
-2.2349 13 21 -0.1706
-2.2349 13 22 -0.1753
-2.2744 13 23 -0.1706
-2.3413 13 24 -0.1704
-2.3413 13 25 -0.1637
-2.4505 13 26 -0.1718
-2.4505 13 27 -0.1648
-2.4827 13 28 -0.1691
-2.5174 13 29 -0.1634
-2.0781 13 3 -0.1894
-2.5174 13 30 -0.1639
-2.5174 13 31 -0.1729
-2.5552 13 32 -0.1750
-2.5552 13 33 -0.1724
-2.6424 13 34 -0.1745
-2.6935 13 35 -0.1634
-2.7515 13 36 -0.1847
-2.7515 13 37 -0.1781
-2.8184 13 38 -0.1787
-2.8976 13 39 -0.1731
-2.0781 13 4 -0.1820
-2.9945 13 40 -0.1934
-2.9945 13 41 -0.1879
-2.9945 13 42 -0.1756
-2.9945 13 43 -0.1668
-2.9945 13 44 -0.1966
-2.9945 13 45 -0.1754
-2.9945 13 46 -0.1857
-2.9945 13 47 -0.1753
-2.9945 13 48 -0.2151
-2.9945 13 49 -0.2086
-2.0781 13 5 -0.1742
-2.9945 13 50 -0.2066
-2.9945 13 51 -0.2116
-2.9945 13 52 -0.1811
-3.1195 13 53 -0.1043
-3.1195 13 54 -0.1323
-3.1195 13 55 -0.1704
-3.1195 13 56 -0.1481
-3.1195 13 57 -0.1739
-3.1195 13 58 -0.1656
-3.2956 13 59 -0.2016
-2.0781 13 6 -0.1712
-3.5966 13 60 -0.2041
-3.5966 13 61 -0.1659
-3.5966 13 62 -0.1821
-3.5966 13 63 -0.2000
-3.5966 13 64 -0.1829
-2.0914 13 7 -0.1777
-2.0914 13 8 -0.1687
-2.0914 13 9 -0.1714
-0.5733 13 </s> -0.3010
-1.2553 130 1 -0.2571
-1.2553 130 2 -0.2504
-1.2553 130 3 -0.1894
-1.2553 130 4 -0.1820
-1.2553 130 5 -0.1742
-1.2553 130 6 -0.1712
-1.2553 130 7 -0.1777
-1.2553 130 8 -0.1687
-1.2553 130 </s> -0.3010
-0.9031 131 1 -0.2571
-0.9031 131 2 -0.2504
-0.9031 131 3 -0.1894
-0.9031 131 </s> -0.3010
-1.5798 132 1 -0.2571
-1.5798 132 10 -0.1677
-1.5798 132 11 -0.1691
-1.5798 132 12 -0.1626
-1.5798 132 13 -0.1661
-1.5798 132 14 -0.1662
-1.5798 132 15 -0.1625
-1.5798 132 16 -0.1565
-1.5798 132 17 -0.1444
-1.5798 132 18 -0.1622
-1.5798 132 2 -0.2504
-1.5798 132 3 -0.1894
-1.5798 132 4 -0.1820
-1.5798 132 5 -0.1742
-1.5798 132 6 -0.1712
-1.5798 132 7 -0.1777
-1.5798 132 8 -0.1687
-1.5798 132 9 -0.1714
-1.5798 132 </s> -0.3010
-0.9031 133 1 -0.2571
-0.9031 133 2 -0.2504
-0.9031 133 3 -0.1894
-0.9031 133 </s> -0.3010
-0.9031 134 1 -0.2571
-0.9031 134 2 -0.2504
-0.9031 134 3 -0.1894
-0.9031 134 </s> -0.3010
-1.6435 135 1 -0.2571
-1.6435 135 10 -0.1677
-1.6435 135 11 -0.1691
-1.6435 135 12 -0.1626
-1.6435 135 13 -0.1661
-1.6435 135 14 -0.1662
-1.6435 135 15 -0.1625
-1.6435 135 16 -0.1565
-1.6435 135 17 -0.1444
-1.6435 135 18 -0.1622
-1.6435 135 19 -0.1618
-1.6435 135 2 -0.2504
-1.6435 135 20 -0.1597
-1.6435 135 21 -0.1706
-1.6435 135 3 -0.1894
-1.6435 135 4 -0.1820
-1.6435 135 5 -0.1742
-1.6435 135 6 -0.1712
-1.6435 135 7 -0.1777
-1.6435 135 8 -0.1687
-1.6435 135 9 -0.1714
-1.6435 135 </s> -0.3010
-1.7324 136 1 -0.2571
-1.7324 136 10 -0.1677
-1.7324 136 11 -0.1691
-1.7324 136 12 -0.1626
-1.7324 136 13 -0.1661
-1.7324 136 14 -0.1662
-1.7324 136 15 -0.1625
-1.7324 136 16 -0.1565
-1.7324 136 17 -0.1444
-1.7324 136 18 -0.1622
-1.7324 136 19 -0.1618
-1.7324 136 2 -0.2504
-1.7324 136 20 -0.1597
-1.7324 136 21 -0.1706
-1.7324 136 22 -0.1753
-1.7324 136 23 -0.1706
-1.7324 136 24 -0.1704
-1.7324 136 25 -0.1637
-1.7324 136 26 -0.1718
-1.7324 136 3 -0.1894
-1.7324 136 4 -0.1820
-1.7324 136 5 -0.1742
-1.7324 136 6 -0.1712
-1.7324 136 7 -0.1777
-1.7324 136 8 -0.1687
-1.7324 136 9 -0.1714
-1.7324 136 </s> -0.3010
-1.3010 137 1 -0.2571
-1.3010 137 2 -0.2504
-1.3010 137 3 -0.1894
-1.3010 137 4 -0.1820
-1.3010 137 5 -0.1742
-1.3010 137 6 -0.1712
-1.3010 137 7 -0.1777
-1.3010 137 8 -0.1687
-1.3010 137 9 -0.1714
-1.3010 137 </s> -0.3010
-1.2553 138 1 -0.2571
-1.2553 138 2 -0.2504
-1.2553 138 3 -0.1894
-1.2553 138 4 -0.1820
-1.2553 138 5 -0.1742
-1.2553 138 6 -0.1712
-1.2553 138 7 -0.1777
-1.2553 138 8 -0.1687
-1.2553 138 </s> -0.3010
-1.6990 139 1 -0.2571
-1.6990 139 10 -0.1677
-1.6990 139 11 -0.1691
-1.6990 139 12 -0.1626
-1.6990 139 13 -0.1661
-1.6990 139 14 -0.1662
-1.6990 139 15 -0.1625
-1.6990 139 16 -0.1565
-1.6990 139 17 -0.1444
-1.6990 139 18 -0.1622
-1.6990 139 19 -0.1618
-1.6990 139 2 -0.2504
-1.6990 139 20 -0.1597
-1.6990 139 21 -0.1706
-1.6990 139 22 -0.1753
-1.6990 139 23 -0.1706
-1.6990 139 24 -0.1704
-1.6990 139 3 -0.1894
-1.6990 139 4 -0.1820
-1.6990 139 5 -0.1742
-1.6990 139 6 -0.1712
-1.6990 139 7 -0.1777
-1.6990 139 8 -0.1687
-1.6990 139 9 -0.1714
-1.6990 139 </s> -0.3010
-2.1077 14 1 -0.2571
-2.1224 14 10 -0.1677
-2.1376 14 11 -0.1691
-2.1376 14 12 -0.1626
-2.1376 14 13 -0.1661
-2.1376 14 14 -0.1662
-2.1534 14 15 -0.1625
-2.1698 14 16 -0.1565
-2.1698 14 17 -0.1444
-2.1868 14 18 -0.1622
-2.1868 14 19 -0.1618
-2.1077 14 2 -0.2504
-2.1868 14 20 -0.1597
-2.2231 14 21 -0.1706
-2.2424 14 22 -0.1753
-2.2838 14 23 -0.1706
-2.3295 14 24 -0.1704
-2.3543 14 25 -0.1637
-2.3543 14 26 -0.1718
-2.3543 14 27 -0.1648
-2.3543 14 28 -0.1691
-2.3807 14 29 -0.1634
-2.1077 14 3 -0.1894
-2.4387 14 30 -0.1639
-2.4387 14 31 -0.1729
-2.5434 14 32 -0.1750
-2.5848 14 33 -0.1724
-2.6305 14 34 -0.1745
-2.6305 14 35 -0.1634
-2.7397 14 36 -0.1847
-2.8066 14 37 -0.1781
-2.8066 14 38 -0.1787
-2.8066 14 39 -0.1731
-2.1077 14 4 -0.1820
-2.8066 14 40 -0.1934
-2.8858 14 41 -0.1879
-2.8858 14 42 -0.1756
-2.9827 14 43 -0.1668
-2.9827 14 44 -0.1966
-2.9827 14 45 -0.1754
-3.1077 14 46 -0.1857
-3.1077 14 47 -0.1753
-3.1077 14 48 -0.2151
-3.1077 14 49 -0.2086
-2.1077 14 5 -0.1742
-3.1077 14 50 -0.2066
-3.1077 14 51 -0.2116
-3.1077 14 52 -0.1811
-3.2838 14 53 -0.1043
-3.2838 14 54 -0.1323
-3.2838 14 55 -0.1704
-3.2838 14 56 -0.1481
-3.2838 14 57 -0.1739
-3.5848 14 58 -0.1656
-3.5848 14 59 -0.2016
-2.1077 14 6 -0.1712
-3.5848 14 60 -0.2041
-3.5848 14 61 -0.1659
-3.5848 14 62 -0.1821
-3.5848 14 63 -0.2000
-3.5848 14 64 -0.1829
-3.5848 14 65 -0.2264
-3.5848 14 66 -0.2359
-3.5848 14 67 -0.1402
-3.5848 14 68 -0.2430
-3.5848 14 69 -0.2443
-2.1077 14 7 -0.1777
-3.5848 14 70 -0.1313
-3.5848 14 71 -0.2319
-3.5848 14 72 -0.2341
-2.1224 14 8 -0.1687
-2.1224 14 9 -0.1714
-0.5736 14 </s> -0.3010
-1.4771 140 1 -0.2571
-1.4771 140 10 -0.1677
-1.4771 140 11 -0.1691
-1.4771 140 12 -0.1626
-1.4771 140 13 -0.1661
-1.4771 140 14 -0.1662
-1.4771 140 2 -0.2504
-1.4771 140 3 -0.1894
-1.4771 140 4 -0.1820
-1.4771 140 5 -0.1742
-1.4771 140 6 -0.1712
-1.4771 140 7 -0.1777
-1.4771 140 8 -0.1687
-1.4771 140 9 -0.1714
-1.4771 140 </s> -0.3010
-1.3424 141 1 -0.2571
-1.3424 141 10 -0.1677
-1.3424 141 2 -0.2504
-1.3424 141 3 -0.1894
-1.3424 141 4 -0.1820
-1.3424 141 5 -0.1742
-1.3424 141 6 -0.1712
-1.3424 141 7 -0.1777
-1.3424 141 8 -0.1687
-1.3424 141 9 -0.1714
-1.3424 141 </s> -0.3010
-1.2553 142 1 -0.2571
-1.2553 142 2 -0.2504
-1.2553 142 3 -0.1894
-1.2553 142 4 -0.1820
-1.2553 142 5 -0.1742
-1.2553 142 6 -0.1712
-1.2553 142 7 -0.1777
-1.2553 142 8 -0.1687
-1.2553 142 </s> -0.3010
-1.4150 143 1 -0.2571
-1.4150 143 10 -0.1677
-1.4150 143 11 -0.1691
-1.4150 143 12 -0.1626
-1.4150 143 2 -0.2504
-1.4150 143 3 -0.1894
-1.4150 143 4 -0.1820
-1.4150 143 5 -0.1742
-1.4150 143 6 -0.1712
-1.4150 143 7 -0.1777
-1.4150 143 8 -0.1687
-1.4150 143 9 -0.1714
-1.4150 143 </s> -0.3010
-1.5051 144 1 -0.2571
-1.5051 144 10 -0.1677
-1.5051 144 11 -0.1691
-1.5051 144 12 -0.1626
-1.5051 144 13 -0.1661
-1.5051 144 14 -0.1662
-1.5051 144 15 -0.1625
-1.5051 144 2 -0.2504
-1.5051 144 3 -0.1894
-1.5051 144 4 -0.1820
-1.5051 144 5 -0.1742
-1.5051 144 6 -0.1712
-1.5051 144 7 -0.1777
-1.5051 144 8 -0.1687
-1.5051 144 9 -0.1714
-1.5051 144 </s> -0.3010
-1.6435 145 1 -0.2571
-1.6435 145 10 -0.1677
-1.6435 145 11 -0.1691
-1.6435 145 12 -0.1626
-1.6435 145 13 -0.1661
-1.6435 145 14 -0.1662
-1.6435 145 15 -0.1625
-1.6435 145 16 -0.1565
-1.6435 145 17 -0.1444
-1.6435 145 18 -0.1622
-1.6435 145 19 -0.1618
-1.6435 145 2 -0.2504
-1.6435 145 20 -0.1597
-1.6435 145 21 -0.1706
-1.6435 145 3 -0.1894
-1.6435 145 4 -0.1820
-1.6435 145 5 -0.1742
-1.6435 145 6 -0.1712
-1.6435 145 7 -0.1777
-1.6435 145 8 -0.1687
-1.6435 145 9 -0.1714
-1.6435 145 </s> -0.3010
-1.3424 146 1 -0.2571
-1.3424 146 10 -0.1677
-1.3424 146 2 -0.2504
-1.3424 146 3 -0.1894
-1.3424 146 4 -0.1820
-1.3424 146 5 -0.1742
-1.3424 146 6 -0.1712
-1.3424 146 7 -0.1777
-1.3424 146 8 -0.1687
-1.3424 146 9 -0.1714
-1.3424 146 </s> -0.3010
-1.6232 147 1 -0.2571
-1.6232 147 10 -0.1677
-1.6232 147 11 -0.1691
-1.6232 147 12 -0.1626
-1.6232 147 13 -0.1661
-1.6232 147 14 -0.1662
-1.6232 147 15 -0.1625
-1.6232 147 16 -0.1565
-1.6232 147 17 -0.1444
-1.6232 147 18 -0.1622
-1.6232 147 19 -0.1618
-1.6232 147 2 -0.2504
-1.6232 147 20 -0.1597
-1.6232 147 3 -0.1894
-1.6232 147 4 -0.1820
-1.6232 147 5 -0.1742
-1.6232 147 6 -0.1712
-1.6232 147 7 -0.1777
-1.6232 147 8 -0.1687
-1.6232 147 9 -0.1714
-1.6232 147 </s> -0.3010
-1.4771 148 1 -0.2571
-1.4771 148 10 -0.1677
-1.4771 148 11 -0.1691
-1.4771 148 12 -0.1626
-1.4771 148 13 -0.1661
-1.4771 148 14 -0.1662
-1.4771 148 2 -0.2504
-1.4771 148 3 -0.1894
-1.4771 148 4 -0.1820
-1.4771 148 5 -0.1742
-1.4771 148 6 -0.1712
-1.4771 148 7 -0.1777
-1.4771 148 8 -0.1687
-1.4771 148 9 -0.1714
-1.4771 148 </s> -0.3010
-1.3010 149 1 -0.2571
-1.3010 149 2 -0.2504
-1.3010 149 3 -0.1894
-1.3010 149 4 -0.1820
-1.3010 149 5 -0.1742
-1.3010 149 6 -0.1712
-1.3010 149 7 -0.1777
-1.3010 149 8 -0.1687
-1.3010 149 9 -0.1714
-1.3010 149 </s> -0.3010
-2.1245 15 1 -0.2571
-2.1941 15 10 -0.1677
-2.1941 15 11 -0.1691
-2.1941 15 12 -0.1626
-2.1941 15 13 -0.1661
-2.1941 15 14 -0.1662
-2.1941 15 15 -0.1625
-2.1941 15 16 -0.1565
-2.1941 15 17 -0.1444
-2.1941 15 18 -0.1622
-2.1941 15 19 -0.1618
-2.1245 15 2 -0.2504
-2.2134 15 20 -0.1597
-2.2336 15 21 -0.1706
-2.2771 15 22 -0.1753
-2.2771 15 23 -0.1706
-2.3005 15 24 -0.1704
-2.3005 15 25 -0.1637
-2.3005 15 26 -0.1718
-2.3005 15 27 -0.1648
-2.3517 15 28 -0.1691
-2.3517 15 29 -0.1634
-2.1245 15 3 -0.1894
-2.3797 15 30 -0.1639
-2.3797 15 31 -0.1729
-2.3797 15 32 -0.1750
-2.4097 15 33 -0.1724
-2.5144 15 34 -0.1745
-2.5558 15 35 -0.1634
-2.6527 15 36 -0.1847
-2.6527 15 37 -0.1781
-2.7107 15 38 -0.1787
-2.7777 15 39 -0.1731
-2.1245 15 4 -0.1820
-2.8568 15 40 -0.1934
-2.8568 15 41 -0.1879
-3.0787 15 42 -0.1756
-3.0787 15 43 -0.1668
-3.0787 15 44 -0.1966
-3.0787 15 45 -0.1754
-3.0787 15 46 -0.1857
-3.0787 15 47 -0.1753
-3.2548 15 48 -0.2151
-3.2548 15 49 -0.2086
-2.1245 15 5 -0.1742
-3.2548 15 50 -0.2066
-3.2548 15 51 -0.2116
-3.2548 15 52 -0.1811
-3.2548 15 53 -0.1043
-3.2548 15 54 -0.1323
-3.2548 15 55 -0.1704
-3.2548 15 56 -0.1481
-3.2548 15 57 -0.1739
-3.2548 15 58 -0.1656
-3.5558 15 59 -0.2016
-2.1408 15 6 -0.1712
-3.5558 15 60 -0.2041
-3.5558 15 61 -0.1659
-3.5558 15 62 -0.1821
-3.5558 15 63 -0.2000
-2.1408 15 7 -0.1777
-2.1408 15 8 -0.1687
-2.1756 15 9 -0.1714
-0.5637 15 </s> -0.3010
-1.1461 150 1 -0.2571
-1.1461 150 2 -0.2504
-1.1461 150 3 -0.1894
-1.1461 150 4 -0.1820
-1.1461 150 5 -0.1742
-1.1461 150 6 -0.1712
-1.1461 150 </s> -0.3010
-0.3010 151 </s> -0.3010
-0.3010 152 </s> -0.3010
-0.3010 153 </s> -0.3010
-0.3010 154 </s> -0.3010
-0.3010 155 </s> -0.3010
-0.3010 156 </s> -0.3010
-0.3010 157 </s> -0.3010
-0.3010 158 </s> -0.3010
-0.3010 159 </s> -0.3010
-2.0950 16 1 -0.2571
-2.0950 16 10 -0.1677
-2.1114 16 11 -0.1691
-2.1284 16 12 -0.1626
-2.1284 16 13 -0.1661
-2.1284 16 14 -0.1662
-2.1646 16 15 -0.1625
-2.1646 16 16 -0.1565
-2.1839 16 17 -0.1444
-2.1839 16 18 -0.1622
-2.1839 16 19 -0.1618
-2.0950 16 2 -0.2504
-2.1839 16 20 -0.1597
-2.2253 16 21 -0.1706
-2.2711 16 22 -0.1753
-2.3222 16 23 -0.1706
-2.3802 16 24 -0.1704
-2.4124 16 25 -0.1637
-2.4124 16 26 -0.1718
-2.4124 16 27 -0.1648
-2.4472 16 28 -0.1691
-2.4849 16 29 -0.1634
-2.0950 16 3 -0.1894
-2.4849 16 30 -0.1639
-2.4849 16 31 -0.1729
-2.5721 16 32 -0.1750
-2.5721 16 33 -0.1724
-2.6812 16 34 -0.1745
-2.8274 16 35 -0.1634
-2.9243 16 36 -0.1847
-3.0492 16 37 -0.1781
-3.0492 16 38 -0.1787
-3.0492 16 39 -0.1731
-2.0950 16 4 -0.1820
-3.0492 16 40 -0.1934
-3.2253 16 41 -0.1879
-3.2253 16 42 -0.1756
-3.2253 16 43 -0.1668
-3.5263 16 44 -0.1966
-3.5263 16 45 -0.1754
-3.5263 16 46 -0.1857
-3.5263 16 47 -0.1753
-3.5263 16 48 -0.2151
-3.5263 16 49 -0.2086
-2.0950 16 5 -0.1742
-3.5263 16 50 -0.2066
-3.5263 16 51 -0.2116
-3.5263 16 52 -0.1811
-3.5263 16 53 -0.1043
-3.5263 16 54 -0.1323
-3.5263 16 55 -0.1704
-3.5263 16 56 -0.1481
-3.5263 16 57 -0.1739
-3.5263 16 58 -0.1656
-3.5263 16 59 -0.2016
-2.0950 16 6 -0.1712
-3.5263 16 60 -0.2041
-3.5263 16 61 -0.1659
-3.5263 16 62 -0.1821
-3.5263 16 63 -0.2000
-2.0950 16 7 -0.1777
-2.0950 16 8 -0.1687
-2.0950 16 9 -0.1714
-0.5482 16 </s> -0.3010
-0.3010 160 </s> -0.3010
-0.3010 161 </s> -0.3010
-0.3010 162 </s> -0.3010
-0.3010 163 </s> -0.3010
-0.3010 164 </s> -0.3010
-0.3010 165 </s> -0.3010
-0.3010 166 </s> -0.3010
-0.3010 167 </s> -0.3010
-0.3010 168 </s> -0.3010
-0.3010 169 </s> -0.3010
-2.1044 17 1 -0.2571
-2.1044 17 10 -0.1677
-2.1044 17 11 -0.1691
-2.1044 17 12 -0.1626
-2.1044 17 13 -0.1661
-2.1229 17 14 -0.1662
-2.1422 17 15 -0.1625
-2.1624 17 16 -0.1565
-2.2293 17 17 -0.1444
-2.2293 17 18 -0.1622
-2.2805 17 19 -0.1618
-2.1044 17 2 -0.2504
-2.3085 17 20 -0.1597
-2.3385 17 21 -0.1706
-2.3385 17 22 -0.1753
-2.3385 17 23 -0.1706
-2.3385 17 24 -0.1704
-2.4054 17 25 -0.1637
-2.4054 17 26 -0.1718
-2.4432 17 27 -0.1648
-2.6395 17 28 -0.1691
-2.7856 17 29 -0.1634
-2.1044 17 3 -0.1894
-2.8825 17 30 -0.1639
-2.8825 17 31 -0.1729
-2.8825 17 32 -0.1750
-2.8825 17 33 -0.1724
-2.8825 17 34 -0.1745
-3.0075 17 35 -0.1634
-3.0075 17 36 -0.1847
-3.0075 17 37 -0.1781
-3.1836 17 38 -0.1787
-3.1836 17 39 -0.1731
-2.1044 17 4 -0.1820
-3.1836 17 40 -0.1934
-3.1836 17 41 -0.1879
-3.4846 17 42 -0.1756
-3.4846 17 43 -0.1668
-3.4846 17 44 -0.1966
-3.4846 17 45 -0.1754
-3.4846 17 46 -0.1857
-3.4846 17 47 -0.1753
-3.4846 17 48 -0.2151
-3.4846 17 49 -0.2086
-2.1044 17 5 -0.1742
-3.4846 17 50 -0.2066
-3.4846 17 51 -0.2116
-3.4846 17 52 -0.1811
-3.4846 17 53 -0.1043
-3.4846 17 54 -0.1323
-3.4846 17 55 -0.1704
-3.4846 17 56 -0.1481
-3.4846 17 57 -0.1739
-3.4846 17 58 -0.1656
-2.1044 17 6 -0.1712
-2.1044 17 7 -0.1777
-2.1044 17 8 -0.1687
-2.1044 17 9 -0.1714
-0.5189 17 </s> -0.3010
-0.3010 170 </s> -0.3010
-0.3010 171 </s> -0.3010
-0.3010 172 </s> -0.3010
-0.3010 173 </s> -0.3010
-0.3010 174 </s> -0.3010
-0.3010 175 </s> -0.3010
-0.3010 176 </s> -0.3010
-2.1266 18 1 -0.2571
-2.1450 18 10 -0.1677
-2.1450 18 11 -0.1691
-2.1450 18 12 -0.1626
-2.1450 18 13 -0.1661
-2.1450 18 14 -0.1662
-2.1450 18 15 -0.1625
-2.1450 18 16 -0.1565
-2.1450 18 17 -0.1444
-2.1644 18 18 -0.1622
-2.1644 18 19 -0.1618
-2.1266 18 2 -0.2504
-2.1644 18 20 -0.1597
-2.1644 18 21 -0.1706
-2.1846 18 22 -0.1753
-2.2057 18 23 -0.1706
-2.2280 18 24 -0.1704
-2.2763 18 25 -0.1637
-2.2763 18 26 -0.1718
-2.2763 18 27 -0.1648
-2.3027 18 28 -0.1691
-2.3606 18 29 -0.1634
-2.1266 18 3 -0.1894
-2.3606 18 30 -0.1639
-2.4276 18 31 -0.1729
-2.4654 18 32 -0.1750
-2.6037 18 33 -0.1724
-2.6617 18 34 -0.1745
-2.7286 18 35 -0.1634
-2.8078 18 36 -0.1847
-2.8078 18 37 -0.1781
-2.9047 18 38 -0.1787
-2.9047 18 39 -0.1731
-2.1266 18 4 -0.1820
-2.9047 18 40 -0.1934
-3.0297 18 41 -0.1879
-3.0297 18 42 -0.1756
-3.0297 18 43 -0.1668
-3.2057 18 44 -0.1966
-3.2057 18 45 -0.1754
-3.2057 18 46 -0.1857
-3.5068 18 47 -0.1753
-3.5068 18 48 -0.2151
-3.5068 18 49 -0.2086
-2.1266 18 5 -0.1742
-3.5068 18 50 -0.2066
-3.5068 18 51 -0.2116
-2.1266 18 6 -0.1712
-2.1266 18 7 -0.1777
-2.1450 18 8 -0.1687
-2.1450 18 9 -0.1714
-0.5628 18 </s> -0.3010
-2.1038 19 1 -0.2571
-2.1038 19 10 -0.1677
-2.1038 19 11 -0.1691
-2.1223 19 12 -0.1626
-2.1223 19 13 -0.1661
-2.1223 19 14 -0.1662
-2.1416 19 15 -0.1625
-2.1830 19 16 -0.1565
-2.1830 19 17 -0.1444
-2.1830 19 18 -0.1622
-2.1830 19 19 -0.1618
-2.1038 19 2 -0.2504
-2.2053 19 20 -0.1597
-2.2053 19 21 -0.1706
-2.2799 19 22 -0.1753
-2.3079 19 23 -0.1706
-2.3079 19 24 -0.1704
-2.3379 19 25 -0.1637
-2.4048 19 26 -0.1718
-2.4048 19 27 -0.1648
-2.4048 19 28 -0.1691
-2.4048 19 29 -0.1634
-2.1038 19 3 -0.1894
-2.4840 19 30 -0.1639
-2.5809 19 31 -0.1729
-2.5809 19 32 -0.1750
-2.5809 19 33 -0.1724
-2.5809 19 34 -0.1745
-2.5809 19 35 -0.1634
-2.5809 19 36 -0.1847
-2.5809 19 37 -0.1781
-2.7059 19 38 -0.1787
-2.7850 19 39 -0.1731
-2.1038 19 4 -0.1820
-2.7850 19 40 -0.1934
-2.8820 19 41 -0.1879
-2.8820 19 42 -0.1756
-3.0069 19 43 -0.1668
-3.0069 19 44 -0.1966
-3.1830 19 45 -0.1754
-3.1830 19 46 -0.1857
-3.1830 19 47 -0.1753
-3.1830 19 48 -0.2151
-3.4840 19 49 -0.2086
-2.1038 19 5 -0.1742
-3.4840 19 50 -0.2066
-3.4840 19 51 -0.2116
-2.1038 19 6 -0.1712
-2.1038 19 7 -0.1777
-2.1038 19 8 -0.1687
-2.1038 19 9 -0.1714
-0.5618 19 </s> -0.3010
-2.2491 2 1 -0.2571
-2.2491 2 10 -0.1677
-2.2563 2 11 -0.1691
-2.2710 2 12 -0.1626
-2.2710 2 13 -0.1661
-2.2863 2 14 -0.1662
-2.2941 2 15 -0.1625
-2.3185 2 16 -0.1565
-2.3443 2 17 -0.1444
-2.3910 2 18 -0.1622
-2.4112 2 19 -0.1618
-2.2491 2 2 -0.2504
-2.4112 2 20 -0.1597
-2.4434 2 21 -0.1706
-2.4547 2 22 -0.1753
-2.5160 2 23 -0.1706
-2.6031 2 24 -0.1704
-2.6195 2 25 -0.1637
-2.7334 2 26 -0.1718
-2.8040 2 27 -0.1648
-2.8303 2 28 -0.1691
-2.8584 2 29 -0.1634
-2.2491 2 3 -0.1894
-2.9553 2 30 -0.1639
-2.9931 2 31 -0.1729
-2.9931 2 32 -0.1750
-3.0345 2 33 -0.1724
-3.0345 2 34 -0.1745
-3.0802 2 35 -0.1634
-3.0802 2 36 -0.1847
-3.1314 2 37 -0.1781
-3.2563 2 38 -0.1787
-3.2563 2 39 -0.1731
-2.2491 2 4 -0.1820
-3.2563 2 40 -0.1934
-3.2563 2 41 -0.1879
-3.2563 2 42 -0.1756
-3.2563 2 43 -0.1668
-3.2563 2 44 -0.1966
-3.2563 2 45 -0.1754
-3.2563 2 46 -0.1857
-3.3355 2 47 -0.1753
-3.4324 2 48 -0.2151
-3.4324 2 49 -0.2086
-2.2491 2 5 -0.1742
-3.5573 2 50 -0.2066
-3.5573 2 51 -0.2116
-3.5573 2 52 -0.1811
-3.7334 2 53 -0.1043
-3.7334 2 54 -0.1323
-3.7334 2 55 -0.1704
-4.0345 2 56 -0.1481
-4.0345 2 57 -0.1739
-4.0345 2 58 -0.1656
-4.0345 2 59 -0.2016
-2.2491 2 6 -0.1712
-4.0345 2 60 -0.2041
-4.0345 2 61 -0.1659
-4.0345 2 62 -0.1821
-4.0345 2 63 -0.2000
-4.0345 2 64 -0.1829
-4.0345 2 65 -0.2264
-4.0345 2 66 -0.2359
-4.0345 2 67 -0.1402
-4.0345 2 68 -0.2430
-4.0345 2 69 -0.2443
-2.2491 2 7 -0.1777
-4.0345 2 70 -0.1313
-2.2491 2 8 -0.1687
-2.2491 2 9 -0.1714
-0.9586 2 </s> -0.3010
-1.1149 2 CHRONICLES -0.0000
-1.6262 2 CORINTHIANS -0.0704
-2.9205 2 JOHN -0.2815
-1.1777 2 KINGS 0.0000
-2.2491 2 PETER -0.0787
-1.1925 2 SAMUEL -0.0439
-2.5573 2 THESSALONIANS -0.1749
-2.1154 2 TIMOTHY -0.0916
-2.0852 20 1 -0.2571
-2.1432 20 10 -0.1677
-2.1644 20 11 -0.1691
-2.1644 20 12 -0.1626
-2.1644 20 13 -0.1661
-2.1644 20 14 -0.1662
-2.1644 20 15 -0.1625
-2.1866 20 16 -0.1565
-2.1866 20 17 -0.1444
-2.1866 20 18 -0.1622
-2.2349 20 19 -0.1618
-2.0852 20 2 -0.2504
-2.2349 20 20 -0.1597
-2.2613 20 21 -0.1706
-2.2893 20 22 -0.1753
-2.2893 20 23 -0.1706
-2.2893 20 24 -0.1704
-2.2893 20 25 -0.1637
-2.2893 20 26 -0.1718
-2.3514 20 27 -0.1648
-2.3862 20 28 -0.1691
-2.3862 20 29 -0.1634
-2.0852 20 3 -0.1894
-2.4654 20 30 -0.1639
-2.5623 20 31 -0.1729
-2.6203 20 32 -0.1750
-2.6203 20 33 -0.1724
-2.6203 20 34 -0.1745
-2.6872 20 35 -0.1634
-2.6872 20 36 -0.1847
-2.6872 20 37 -0.1781
-2.6872 20 38 -0.1787
-2.7664 20 39 -0.1731
-2.0852 20 4 -0.1820
-2.7664 20 40 -0.1934
-2.7664 20 41 -0.1879
-2.7664 20 42 -0.1756
-2.8633 20 43 -0.1668
-2.9883 20 44 -0.1966
-3.1644 20 45 -0.1754
-3.1644 20 46 -0.1857
-3.1644 20 47 -0.1753
-3.4654 20 48 -0.2151
-2.0852 20 5 -0.1742
-2.0852 20 6 -0.1712
-2.1037 20 7 -0.1777
-2.1037 20 8 -0.1687
-2.1230 20 9 -0.1714
-0.5564 20 </s> -0.3010
-2.0934 21 1 -0.2571
-2.0934 21 10 -0.1677
-2.0934 21 11 -0.1691
-2.0934 21 12 -0.1626
-2.0934 21 13 -0.1661
-2.0934 21 14 -0.1662
-2.1312 21 15 -0.1625
-2.1312 21 16 -0.1565
-2.1514 21 17 -0.1444
-2.1514 21 18 -0.1622
-2.1514 21 19 -0.1618
-2.0934 21 2 -0.2504
-2.1514 21 20 -0.1597
-2.1514 21 21 -0.1706
-2.1514 21 22 -0.1753
-2.1726 21 23 -0.1706
-2.1949 21 24 -0.1704
-2.2184 21 25 -0.1637
-2.2695 21 26 -0.1718
-2.2975 21 27 -0.1648
-2.3597 21 28 -0.1691
-2.3597 21 29 -0.1634
-2.0934 21 3 -0.1894
-2.3945 21 30 -0.1639
-2.4322 21 31 -0.1729
-2.4736 21 32 -0.1750
-2.4736 21 33 -0.1724
-2.4736 21 34 -0.1745
-2.5705 21 35 -0.1634
-2.6285 21 36 -0.1847
-2.6285 21 37 -0.1781
-2.8716 21 38 -0.1787
-2.9965 21 39 -0.1731
-2.0934 21 4 -0.1820
-2.9965 21 40 -0.1934
-3.1726 21 41 -0.1879
-3.1726 21 42 -0.1756
-3.1726 21 43 -0.1668
-3.1726 21 44 -0.1966
-3.1726 21 45 -0.1754
-3.4736 21 46 -0.1857
-2.0934 21 5 -0.1742
-2.0934 21 6 -0.1712
-2.0934 21 7 -0.1777
-2.0934 21 8 -0.1687
-2.0934 21 9 -0.1714
-0.5860 21 </s> -0.3010
-2.1164 22 1 -0.2571
-2.1164 22 10 -0.1677
-2.1164 22 11 -0.1691
-2.1164 22 12 -0.1626
-2.1366 22 13 -0.1661
-2.1366 22 14 -0.1662
-2.1366 22 15 -0.1625
-2.1366 22 16 -0.1565
-2.1366 22 17 -0.1444
-2.1366 22 18 -0.1622
-2.1366 22 19 -0.1618
-2.1164 22 2 -0.2504
-2.1578 22 20 -0.1597
-2.1800 22 21 -0.1706
-2.2035 22 22 -0.1753
-2.2035 22 23 -0.1706
-2.2283 22 24 -0.1704
-2.2547 22 25 -0.1637
-2.2827 22 26 -0.1718
-2.2827 22 27 -0.1648
-2.2827 22 28 -0.1691
-2.2827 22 29 -0.1634
-2.1164 22 3 -0.1894
-2.3448 22 30 -0.1639
-2.5045 22 31 -0.1729
-2.5557 22 32 -0.1750
-2.6137 22 33 -0.1724
-2.6806 22 34 -0.1745
-2.7598 22 35 -0.1634
-2.7598 22 36 -0.1847
-2.7598 22 37 -0.1781
-2.7598 22 38 -0.1787
-2.7598 22 39 -0.1731
-2.1164 22 4 -0.1820
-2.7598 22 40 -0.1934
-2.7598 22 41 -0.1879
-2.8567 22 42 -0.1756
-2.8567 22 43 -0.1668
-2.8567 22 44 -0.1966
-2.8567 22 45 -0.1754
-2.8567 22 46 -0.1857
-2.9817 22 47 -0.1753
-2.9817 22 48 -0.2151
-2.9817 22 49 -0.2086
-2.1164 22 5 -0.1742
-2.9817 22 50 -0.2066
-2.9817 22 51 -0.2116
-3.1578 22 52 -0.1811
-3.1578 22 53 -0.1043
-3.1578 22 54 -0.1323
-3.4588 22 55 -0.1704
-3.4588 22 56 -0.1481
-3.4588 22 57 -0.1739
-3.4588 22 58 -0.1656
-3.4588 22 59 -0.2016
-2.1164 22 6 -0.1712
-3.4588 22 60 -0.2041
-3.4588 22 61 -0.1659
-3.4588 22 62 -0.1821
-3.4588 22 63 -0.2000
-3.4588 22 64 -0.1829
-3.4588 22 65 -0.2264
-3.4588 22 66 -0.2359
-3.4588 22 67 -0.1402
-3.4588 22 68 -0.2430
-3.4588 22 69 -0.2443
-2.1164 22 7 -0.1777
-3.4588 22 70 -0.1313
-3.4588 22 71 -0.2319
-2.1164 22 8 -0.1687
-2.1164 22 9 -0.1714
-0.5997 22 </s> -0.3010
-2.1109 23 1 -0.2571
-2.1332 23 10 -0.1677
-2.1332 23 11 -0.1691
-2.1332 23 12 -0.1626
-2.1332 23 13 -0.1661
-2.1332 23 14 -0.1662
-2.1332 23 15 -0.1625
-2.1332 23 16 -0.1565
-2.1567 23 17 -0.1444
-2.1815 23 18 -0.1622
-2.2078 23 19 -0.1618
-2.1109 23 2 -0.2504
-2.2078 23 20 -0.1597
-2.2359 23 21 -0.1706
-2.2658 23 22 -0.1753
-2.2658 23 23 -0.1706
-2.2658 23 24 -0.1704
-2.2658 23 25 -0.1637
-2.2658 23 26 -0.1718
-2.2980 23 27 -0.1648
-2.2980 23 28 -0.1691
-2.3328 23 29 -0.1634
-2.1109 23 3 -0.1894
-2.3328 23 30 -0.1639
-2.3706 23 31 -0.1729
-2.3706 23 32 -0.1750
-2.4120 23 33 -0.1724
-2.4577 23 34 -0.1745
-2.4577 23 35 -0.1634
-2.5669 23 36 -0.1847
-2.5669 23 37 -0.1781
-2.6338 23 38 -0.1787
-2.6338 23 39 -0.1731
-2.1109 23 4 -0.1820
-2.8099 23 40 -0.1934
-2.9348 23 41 -0.1879
-2.9348 23 42 -0.1756
-2.9348 23 43 -0.1668
-2.9348 23 44 -0.1966
-3.1109 23 45 -0.1754
-3.1109 23 46 -0.1857
-3.1109 23 47 -0.1753
-3.1109 23 48 -0.2151
-3.1109 23 49 -0.2086
-2.1109 23 5 -0.1742
-3.4120 23 50 -0.2066
-3.4120 23 51 -0.2116
-3.4120 23 52 -0.1811
-3.4120 23 53 -0.1043
-3.4120 23 54 -0.1323
-3.4120 23 55 -0.1704
-3.4120 23 56 -0.1481
-2.1109 23 6 -0.1712
-2.1332 23 7 -0.1777
-2.1332 23 8 -0.1687
-2.1332 23 9 -0.1714
-0.5859 23 </s> -0.3010
-2.0774 24 1 -0.2571
-2.0774 24 10 -0.1677
-2.1231 24 11 -0.1691
-2.1231 24 12 -0.1626
-2.1231 24 13 -0.1661
-2.1231 24 14 -0.1662
-2.1231 24 15 -0.1625
-2.1231 24 16 -0.1565
-2.1231 24 17 -0.1444
-2.1231 24 18 -0.1622
-2.1479 24 19 -0.1618
-2.0774 24 2 -0.2504
-2.1479 24 20 -0.1597
-2.1743 24 21 -0.1706
-2.1743 24 22 -0.1753
-2.2023 24 23 -0.1706
-2.2992 24 24 -0.1704
-2.2992 24 25 -0.1637
-2.4242 24 26 -0.1718
-2.4242 24 27 -0.1648
-2.6002 24 28 -0.1691
-2.6002 24 29 -0.1634
-2.0774 24 3 -0.1894
-2.6002 24 30 -0.1639
-2.6002 24 31 -0.1729
-2.6794 24 32 -0.1750
-2.6794 24 33 -0.1724
-2.7763 24 34 -0.1745
-2.9013 24 35 -0.1634
-2.9013 24 36 -0.1847
-2.9013 24 37 -0.1781
-2.9013 24 38 -0.1787
-2.9013 24 39 -0.1731
-2.0774 24 4 -0.1820
-2.9013 24 40 -0.1934
-2.9013 24 41 -0.1879
-2.9013 24 42 -0.1756
-2.9013 24 43 -0.1668
-2.9013 24 44 -0.1966
-2.9013 24 45 -0.1754
-2.9013 24 46 -0.1857
-2.9013 24 47 -0.1753
-2.9013 24 48 -0.2151
-2.9013 24 49 -0.2086
-2.0774 24 5 -0.1742
-2.9013 24 50 -0.2066
-2.9013 24 51 -0.2116
-3.0774 24 52 -0.1811
-3.0774 24 53 -0.1043
-3.3784 24 54 -0.1323
-3.3784 24 55 -0.1704
-3.3784 24 56 -0.1481
-3.3784 24 57 -0.1739
-3.3784 24 58 -0.1656
-3.3784 24 59 -0.2016
-2.0774 24 6 -0.1712
-3.3784 24 60 -0.2041
-3.3784 24 61 -0.1659
-3.3784 24 62 -0.1821
-3.3784 24 63 -0.2000
-3.3784 24 64 -0.1829
-3.3784 24 65 -0.2264
-3.3784 24 66 -0.2359
-3.3784 24 67 -0.1402
-2.0774 24 7 -0.1777
-2.0774 24 8 -0.1687
-2.0774 24 9 -0.1714
-0.5853 24 </s> -0.3010
-2.1044 25 1 -0.2571
-2.1307 25 10 -0.1677
-2.1307 25 11 -0.1691
-2.1307 25 12 -0.1626
-2.1588 25 13 -0.1661
-2.1588 25 14 -0.1662
-2.1588 25 15 -0.1625
-2.1588 25 16 -0.1565
-2.1588 25 17 -0.1444
-2.1887 25 18 -0.1622
-2.1887 25 19 -0.1618
-2.1044 25 2 -0.2504
-2.2557 25 20 -0.1597
-2.2557 25 21 -0.1706
-2.2557 25 22 -0.1753
-2.2935 25 23 -0.1706
-2.2935 25 24 -0.1704
-2.2935 25 25 -0.1637
-2.2935 25 26 -0.1718
-2.2935 25 27 -0.1648
-2.3349 25 28 -0.1691
-2.4318 25 29 -0.1634
-2.1044 25 3 -0.1894
-2.4318 25 30 -0.1639
-2.4898 25 31 -0.1729
-2.5567 25 32 -0.1750
-2.5567 25 33 -0.1724
-2.5567 25 34 -0.1745
-2.6359 25 35 -0.1634
-2.6359 25 36 -0.1847
-2.6359 25 37 -0.1781
-2.6359 25 38 -0.1787
-2.7328 25 39 -0.1731
-2.1044 25 4 -0.1820
-2.7328 25 40 -0.1934
-2.8577 25 41 -0.1879
-2.8577 25 42 -0.1756
-2.8577 25 43 -0.1668
-3.0338 25 44 -0.1966
-3.0338 25 45 -0.1754
-3.0338 25 46 -0.1857
-3.3349 25 47 -0.1753
-3.3349 25 48 -0.2151
-3.3349 25 49 -0.2086
-2.1044 25 5 -0.1742
-3.3349 25 50 -0.2066
-3.3349 25 51 -0.2116
-3.3349 25 52 -0.1811
-3.3349 25 53 -0.1043
-3.3349 25 54 -0.1323
-3.3349 25 55 -0.1704
-2.1044 25 6 -0.1712
-2.1307 25 7 -0.1777
-2.1307 25 8 -0.1687
-2.1307 25 9 -0.1714
-0.5670 25 </s> -0.3010
-2.1169 26 1 -0.2571
-2.1169 26 10 -0.1677
-2.1169 26 11 -0.1691
-2.1449 26 12 -0.1626
-2.1449 26 13 -0.1661
-2.1449 26 14 -0.1662
-2.1748 26 15 -0.1625
-2.1748 26 16 -0.1565
-2.1748 26 17 -0.1444
-2.1748 26 18 -0.1622
-2.1748 26 19 -0.1618
-2.1169 26 2 -0.2504
-2.2070 26 20 -0.1597
-2.2070 26 21 -0.1706
-2.2796 26 22 -0.1753
-2.2796 26 23 -0.1706
-2.3210 26 24 -0.1704
-2.3667 26 25 -0.1637
-2.4179 26 26 -0.1718
-2.4179 26 27 -0.1648
-2.4179 26 28 -0.1691
-2.4759 26 29 -0.1634
-2.1169 26 3 -0.1894
-2.4759 26 30 -0.1639
-2.4759 26 31 -0.1729
-2.4759 26 32 -0.1750
-2.6220 26 33 -0.1724
-2.6220 26 34 -0.1745
-2.6220 26 35 -0.1634
-2.7189 26 36 -0.1847
-2.7189 26 37 -0.1781
-2.8439 26 38 -0.1787
-2.8439 26 39 -0.1731
-2.1169 26 4 -0.1820
-2.8439 26 40 -0.1934
-2.8439 26 41 -0.1879
-2.8439 26 42 -0.1756
-2.8439 26 43 -0.1668
-2.8439 26 44 -0.1966
-2.8439 26 45 -0.1754
-2.8439 26 46 -0.1857
-3.0199 26 47 -0.1753
-3.0199 26 48 -0.2151
-3.0199 26 49 -0.2086
-2.1169 26 5 -0.1742
-3.0199 26 50 -0.2066
-3.0199 26 51 -0.2116
-3.0199 26 52 -0.1811
-3.0199 26 53 -0.1043
-3.0199 26 54 -0.1323
-3.0199 26 55 -0.1704
-3.0199 26 56 -0.1481
-3.0199 26 57 -0.1739
-3.0199 26 58 -0.1656
-3.0199 26 59 -0.2016
-2.1169 26 6 -0.1712
-3.0199 26 60 -0.2041
-3.0199 26 61 -0.1659
-3.0199 26 62 -0.1821
-3.0199 26 63 -0.2000
-3.0199 26 64 -0.1829
-3.0199 26 65 -0.2264
-3.3210 26 66 -0.2359
-3.3210 26 67 -0.1402
-3.3210 26 68 -0.2430
-3.3210 26 69 -0.2443
-2.1169 26 7 -0.1777
-3.3210 26 70 -0.1313
-3.3210 26 71 -0.2319
-3.3210 26 72 -0.2341
-3.3210 26 73 -0.2668
-3.3210 26 74 -0.2604
-3.3210 26 75 -0.2272
-2.1169 26 8 -0.1687
-2.1169 26 9 -0.1714
-0.5894 26 </s> -0.3010
-2.0742 27 1 -0.2571
-2.1022 27 10 -0.1677
-2.1022 27 11 -0.1691
-2.1022 27 12 -0.1626
-2.1322 27 13 -0.1661
-2.1644 27 14 -0.1662
-2.1991 27 15 -0.1625
-2.1991 27 16 -0.1565
-2.1991 27 17 -0.1444
-2.1991 27 18 -0.1622
-2.1991 27 19 -0.1618
-2.0742 27 2 -0.2504
-2.1991 27 20 -0.1597
-2.1991 27 21 -0.1706
-2.2783 27 22 -0.1753
-2.3241 27 23 -0.1706
-2.3752 27 24 -0.1704
-2.4332 27 25 -0.1637
-2.4332 27 26 -0.1718
-2.5001 27 27 -0.1648
-2.5793 27 28 -0.1691
-2.5793 27 29 -0.1634
-2.0742 27 3 -0.1894
-2.5793 27 30 -0.1639
-2.5793 27 31 -0.1729
-2.5793 27 32 -0.1750
-2.5793 27 33 -0.1724
-2.5793 27 34 -0.1745
-2.6762 27 35 -0.1634
-2.6762 27 36 -0.1847
-2.8012 27 37 -0.1781
-2.8012 27 38 -0.1787
-2.8012 27 39 -0.1731
-2.0742 27 4 -0.1820
-2.8012 27 40 -0.1934
-2.8012 27 41 -0.1879
-2.8012 27 42 -0.1756
-2.8012 27 43 -0.1668
-2.8012 27 44 -0.1966
-2.9773 27 45 -0.1754
-2.9773 27 46 -0.1857
-3.2783 27 47 -0.1753
-3.2783 27 48 -0.2151
-3.2783 27 49 -0.2086
-2.0742 27 5 -0.1742
-3.2783 27 50 -0.2066
-3.2783 27 51 -0.2116
-3.2783 27 52 -0.1811
-3.2783 27 53 -0.1043
-3.2783 27 54 -0.1323
-3.2783 27 55 -0.1704
-3.2783 27 56 -0.1481
-3.2783 27 57 -0.1739
-3.2783 27 58 -0.1656
-3.2783 27 59 -0.2016
-2.0742 27 6 -0.1712
-3.2783 27 60 -0.2041
-3.2783 27 61 -0.1659
-3.2783 27 62 -0.1821
-3.2783 27 63 -0.2000
-3.2783 27 64 -0.1829
-3.2783 27 65 -0.2264
-3.2783 27 66 -0.2359
-2.0742 27 7 -0.1777
-2.0742 27 8 -0.1687
-2.0742 27 9 -0.1714
-0.5699 27 </s> -0.3010
-2.0768 28 1 -0.2571
-2.1067 28 10 -0.1677
-2.1067 28 11 -0.1691
-2.1067 28 12 -0.1626
-2.1067 28 13 -0.1661
-2.1067 28 14 -0.1662
-2.1067 28 15 -0.1625
-2.1067 28 16 -0.1565
-2.1067 28 17 -0.1444
-2.1389 28 18 -0.1622
-2.1389 28 19 -0.1618
-2.0768 28 2 -0.2504
-2.1389 28 20 -0.1597
-2.1737 28 21 -0.1706
-2.2115 28 22 -0.1753
-2.2529 28 23 -0.1706
-2.2529 28 24 -0.1704
-2.2529 28 25 -0.1637
-2.2986 28 26 -0.1718
-2.3498 28 27 -0.1648
-2.4078 28 28 -0.1691
-2.5539 28 29 -0.1634
-2.0768 28 3 -0.1894
-2.6508 28 30 -0.1639
-2.6508 28 31 -0.1729
-2.9518 28 32 -0.1750
-2.9518 28 33 -0.1724
-2.9518 28 34 -0.1745
-2.9518 28 35 -0.1634
-2.9518 28 36 -0.1847
-2.9518 28 37 -0.1781
-2.9518 28 38 -0.1787
-2.9518 28 39 -0.1731
-2.0768 28 4 -0.1820
-2.9518 28 40 -0.1934
-2.9518 28 41 -0.1879
-2.9518 28 42 -0.1756
-2.9518 28 43 -0.1668
-3.2529 28 44 -0.1966
-3.2529 28 45 -0.1754
-3.2529 28 46 -0.1857
-3.2529 28 47 -0.1753
-3.2529 28 48 -0.2151
-3.2529 28 49 -0.2086
-2.0768 28 5 -0.1742
-3.2529 28 50 -0.2066
-3.2529 28 51 -0.2116
-3.2529 28 52 -0.1811
-3.2529 28 53 -0.1043
-3.2529 28 54 -0.1323
-3.2529 28 55 -0.1704
-3.2529 28 56 -0.1481
-3.2529 28 57 -0.1739
-3.2529 28 58 -0.1656
-3.2529 28 59 -0.2016
-2.0768 28 6 -0.1712
-3.2529 28 60 -0.2041
-3.2529 28 61 -0.1659
-3.2529 28 62 -0.1821
-3.2529 28 63 -0.2000
-3.2529 28 64 -0.1829
-3.2529 28 65 -0.2264
-3.2529 28 66 -0.2359
-3.2529 28 67 -0.1402
-3.2529 28 68 -0.2430
-3.2529 28 69 -0.2443
-2.0768 28 7 -0.1777
-2.0768 28 8 -0.1687
-2.0768 28 9 -0.1714
-0.5817 28 </s> -0.3010
-2.0896 29 1 -0.2571
-2.0896 29 10 -0.1677
-2.0896 29 11 -0.1691
-2.1622 29 12 -0.1626
-2.1622 29 13 -0.1661
-2.1622 29 14 -0.1662
-2.1622 29 15 -0.1625
-2.1622 29 16 -0.1565
-2.1622 29 17 -0.1444
-2.1622 29 18 -0.1622
-2.1622 29 19 -0.1618
-2.0896 29 2 -0.2504
-2.1622 29 20 -0.1597
-2.1622 29 21 -0.1706
-2.2036 29 22 -0.1753
-2.2036 29 23 -0.1706
-2.2036 29 24 -0.1704
-2.2493 29 25 -0.1637
-2.3005 29 26 -0.1718
-2.3005 29 27 -0.1648
-2.3585 29 28 -0.1691
-2.4254 29 29 -0.1634
-2.0896 29 3 -0.1894
-2.4254 29 30 -0.1639
-2.5046 29 31 -0.1729
-2.5046 29 32 -0.1750
-2.6015 29 33 -0.1724
-2.6015 29 34 -0.1745
-2.6015 29 35 -0.1634
-2.7265 29 36 -0.1847
-2.9025 29 37 -0.1781
-2.9025 29 38 -0.1787
-2.9025 29 39 -0.1731
-2.0896 29 4 -0.1820
-3.2036 29 40 -0.1934
-3.2036 29 41 -0.1879
-3.2036 29 42 -0.1756
-3.2036 29 43 -0.1668
-3.2036 29 44 -0.1966
-3.2036 29 45 -0.1754
-3.2036 29 46 -0.1857
-2.0896 29 5 -0.1742
-2.0896 29 6 -0.1712
-2.0896 29 7 -0.1777
-2.0896 29 8 -0.1687
-2.0896 29 9 -0.1714
-0.5661 29 </s> -0.3010
-1.9493 3 1 -0.2571
-1.9720 3 10 -0.1677
-3.7202 3 100 -0.2341
-1.9878 3 11 -0.1691
-1.9959 3 12 -0.1626
-2.0042 3 13 -0.1661
-2.0212 3 14 -0.1662
-2.0212 3 15 -0.1625
-2.0481 3 16 -0.1565
-2.0574 3 17 -0.1444
-2.1074 3 18 -0.1622
-2.1520 3 19 -0.1618
-1.9493 3 2 -0.2504
-2.1887 3 20 -0.1597
-2.2016 3 21 -0.1706
-2.2430 3 22 -0.1753
-2.3052 3 23 -0.1706
-2.3222 3 24 -0.1704
-2.3979 3 25 -0.1637
-2.4414 3 26 -0.1718
-2.5160 3 27 -0.1648
-2.5740 3 28 -0.1691
-2.6062 3 29 -0.1634
-1.9493 3 3 -0.1894
-2.6788 3 30 -0.1639
-2.6788 3 31 -0.1729
-2.7659 3 32 -0.1750
-2.7659 3 33 -0.1724
-2.7659 3 34 -0.1745
-2.7659 3 35 -0.1634
-2.8751 3 36 -0.1847
-2.9420 3 37 -0.1781
-2.9420 3 38 -0.1787
-3.1181 3 39 -0.1731
-1.9493 3 4 -0.1820
-3.2430 3 40 -0.1934
-3.2430 3 41 -0.1879
-3.2430 3 42 -0.1756
-3.2430 3 43 -0.1668
-3.2430 3 44 -0.1966
-3.2430 3 45 -0.1754
-3.2430 3 46 -0.1857
-3.2430 3 47 -0.1753
-3.2430 3 48 -0.2151
-3.2430 3 49 -0.2086
-1.9493 3 5 -0.1742
-3.2430 3 50 -0.2066
-3.2430 3 51 -0.2116
-3.4191 3 52 -0.1811
-3.4191 3 53 -0.1043
-3.4191 3 54 -0.1323
-3.4191 3 55 -0.1704
-3.4191 3 56 -0.1481
-3.4191 3 57 -0.1739
-3.4191 3 58 -0.1656
-3.4191 3 59 -0.2016
-1.9643 3 6 -0.1712
-3.4191 3 60 -0.2041
-3.4191 3 61 -0.1659
-3.4191 3 62 -0.1821
-3.4191 3 63 -0.2000
-3.4191 3 64 -0.1829
-3.4191 3 65 -0.2264
-3.4191 3 66 -0.2359
-3.7202 3 67 -0.1402
-3.7202 3 68 -0.2430
-3.7202 3 69 -0.2443
-1.9643 3 7 -0.1777
-3.7202 3 70 -0.1313
-3.7202 3 71 -0.2319
-3.7202 3 72 -0.2341
-3.7202 3 73 -0.2668
-3.7202 3 74 -0.2604
-3.7202 3 75 -0.2272
-3.7202 3 76 -0.2467
-3.7202 3 77 -0.2648
-3.7202 3 78 -0.2894
-3.7202 3 79 -0.2467
-1.9643 3 8 -0.1687
-3.7202 3 80 -0.2632
-3.7202 3 81 -0.2672
-3.7202 3 82 -0.2374
-3.7202 3 83 -0.2704
-3.7202 3 84 -0.2583
-3.7202 3 85 -0.2609
-3.7202 3 86 -0.2672
-3.7202 3 87 -0.2304
-3.7202 3 88 -0.2704
-3.7202 3 89 -0.2892
-1.9720 3 9 -0.1714
-3.7202 3 90 -0.2775
-3.7202 3 91 -0.2762
-3.7202 3 92 -0.2762
-3.7202 3 93 -0.2341
-3.7202 3 94 -0.2833
-3.7202 3 95 -0.2663
-3.7202 3 96 -0.2711
-3.7202 3 97 -0.2688
-3.7202 3 98 -0.2596
-3.7202 3 99 -0.2596
-0.6446 3 </s> -0.3010
-2.5441 3 JOHN -0.2815
-2.0870 30 1 -0.2571
-2.0870 30 10 -0.1677
-2.0870 30 11 -0.1691
-2.0870 30 12 -0.1626
-2.0870 30 13 -0.1661
-2.1247 30 14 -0.1662
-2.1247 30 15 -0.1625
-2.1247 30 16 -0.1565
-2.1247 30 17 -0.1444
-2.1661 30 18 -0.1622
-2.1661 30 19 -0.1618
-2.0870 30 2 -0.2504
-2.1661 30 20 -0.1597
-2.2119 30 21 -0.1706
-2.2119 30 22 -0.1753
-2.2119 30 23 -0.1706
-2.2119 30 24 -0.1704
-2.2630 30 25 -0.1637
-2.2630 30 26 -0.1718
-2.3210 30 27 -0.1648
-2.3880 30 28 -0.1691
-2.3880 30 29 -0.1634
-2.0870 30 3 -0.1894
-2.3880 30 30 -0.1639
-2.3880 30 31 -0.1729
-2.5641 30 32 -0.1750
-2.5641 30 33 -0.1724
-2.8651 30 34 -0.1745
-2.8651 30 35 -0.1634
-2.8651 30 36 -0.1847
-2.8651 30 37 -0.1781
-2.8651 30 38 -0.1787
-3.1661 30 39 -0.1731
-2.0870 30 4 -0.1820
-3.1661 30 40 -0.1934
-3.1661 30 41 -0.1879
-3.1661 30 42 -0.1756
-3.1661 30 43 -0.1668
-2.0870 30 5 -0.1742
-2.0870 30 6 -0.1712
-2.0870 30 7 -0.1777
-2.0870 30 8 -0.1687
-2.0870 30 9 -0.1714
-0.5673 30 </s> -0.3010
-2.0804 31 1 -0.2571
-2.1182 31 10 -0.1677
-2.1182 31 11 -0.1691
-2.1182 31 12 -0.1626
-2.1182 31 13 -0.1661
-2.1596 31 14 -0.1662
-2.1596 31 15 -0.1625
-2.1596 31 16 -0.1565
-2.1596 31 17 -0.1444
-2.1596 31 18 -0.1622
-2.2565 31 19 -0.1618
-2.0804 31 2 -0.2504
-2.2565 31 20 -0.1597
-2.2565 31 21 -0.1706
-2.3145 31 22 -0.1753
-2.3145 31 23 -0.1706
-2.3145 31 24 -0.1704
-2.3145 31 25 -0.1637
-2.3814 31 26 -0.1718
-2.3814 31 27 -0.1648
-2.3814 31 28 -0.1691
-2.3814 31 29 -0.1634
-2.0804 31 3 -0.1894
-2.3814 31 30 -0.1639
-2.4606 31 31 -0.1729
-2.5575 31 32 -0.1750
-2.5575 31 33 -0.1724
-2.5575 31 34 -0.1745
-2.5575 31 35 -0.1634
-2.5575 31 36 -0.1847
-2.5575 31 37 -0.1781
-2.5575 31 38 -0.1787
-2.5575 31 39 -0.1731
-2.0804 31 4 -0.1820
-2.5575 31 40 -0.1934
-2.8585 31 41 -0.1879
-2.8585 31 42 -0.1756
-2.8585 31 43 -0.1668
-2.8585 31 44 -0.1966
-2.8585 31 45 -0.1754
-2.8585 31 46 -0.1857
-2.8585 31 47 -0.1753
-2.8585 31 48 -0.2151
-2.8585 31 49 -0.2086
-2.0804 31 5 -0.1742
-2.8585 31 50 -0.2066
-2.8585 31 51 -0.2116
-2.8585 31 52 -0.1811
-2.8585 31 53 -0.1043
-2.8585 31 54 -0.1323
-2.0804 31 6 -0.1712
-2.0804 31 7 -0.1777
-2.0804 31 8 -0.1687
-2.0804 31 9 -0.1714
-0.5925 31 </s> -0.3010
-2.1159 32 1 -0.2571
-2.1159 32 10 -0.1677
-2.1159 32 11 -0.1691
-2.1617 32 12 -0.1626
-2.1617 32 13 -0.1661
-2.1617 32 14 -0.1662
-2.1617 32 15 -0.1625
-2.1617 32 16 -0.1565
-2.1617 32 17 -0.1444
-2.1617 32 18 -0.1622
-2.1617 32 19 -0.1618
-2.1159 32 2 -0.2504
-2.1617 32 20 -0.1597
-2.2129 32 21 -0.1706
-2.2129 32 22 -0.1753
-2.2708 32 23 -0.1706
-2.2708 32 24 -0.1704
-2.2708 32 25 -0.1637
-2.2708 32 26 -0.1718
-2.2708 32 27 -0.1648
-2.2708 32 28 -0.1691
-2.2708 32 29 -0.1634
-2.1159 32 3 -0.1894
-2.2708 32 30 -0.1639
-2.2708 32 31 -0.1729
-2.2708 32 32 -0.1750
-2.3378 32 33 -0.1724
-2.5139 32 34 -0.1745
-2.5139 32 35 -0.1634
-2.6388 32 36 -0.1847
-2.6388 32 37 -0.1781
-2.6388 32 38 -0.1787
-2.6388 32 39 -0.1731
-2.1159 32 4 -0.1820
-2.6388 32 40 -0.1934
-2.6388 32 41 -0.1879
-2.6388 32 42 -0.1756
-2.8149 32 43 -0.1668
-2.8149 32 44 -0.1966
-3.1159 32 45 -0.1754
-3.1159 32 46 -0.1857
-3.1159 32 47 -0.1753
-3.1159 32 48 -0.2151
-3.1159 32 49 -0.2086
-2.1159 32 5 -0.1742
-3.1159 32 50 -0.2066
-3.1159 32 51 -0.2116
-3.1159 32 52 -0.1811
-2.1159 32 6 -0.1712
-2.1159 32 7 -0.1777
-2.1159 32 8 -0.1687
-2.1159 32 9 -0.1714
-0.5987 32 </s> -0.3010
-2.0770 33 1 -0.2571
-2.0770 33 10 -0.1677
-2.0770 33 11 -0.1691
-2.0770 33 12 -0.1626
-2.0770 33 13 -0.1661
-2.0770 33 14 -0.1662
-2.0770 33 15 -0.1625
-2.0770 33 16 -0.1565
-2.0770 33 17 -0.1444
-2.0770 33 18 -0.1622
-2.0770 33 19 -0.1618
-2.0770 33 2 -0.2504
-2.0770 33 20 -0.1597
-2.1228 33 21 -0.1706
-2.1228 33 22 -0.1753
-2.1739 33 23 -0.1706
-2.2319 33 24 -0.1704
-2.2989 33 25 -0.1637
-2.3780 33 26 -0.1718
-2.4749 33 27 -0.1648
-2.4749 33 28 -0.1691
-2.4749 33 29 -0.1634
-2.0770 33 3 -0.1894
-2.5999 33 30 -0.1639
-2.5999 33 31 -0.1729
-2.5999 33 32 -0.1750
-2.5999 33 33 -0.1724
-3.0770 33 34 -0.1745
-3.0770 33 35 -0.1634
-3.0770 33 36 -0.1847
-3.0770 33 37 -0.1781
-3.0770 33 38 -0.1787
-3.0770 33 39 -0.1731
-2.0770 33 4 -0.1820
-3.0770 33 40 -0.1934
-3.0770 33 41 -0.1879
-3.0770 33 42 -0.1756
-3.0770 33 43 -0.1668
-3.0770 33 44 -0.1966
-3.0770 33 45 -0.1754
-3.0770 33 46 -0.1857
-3.0770 33 47 -0.1753
-3.0770 33 48 -0.2151
-3.0770 33 49 -0.2086
-2.0770 33 5 -0.1742
-3.0770 33 50 -0.2066
-3.0770 33 51 -0.2116
-3.0770 33 52 -0.1811
-3.0770 33 53 -0.1043
-3.0770 33 54 -0.1323
-3.0770 33 55 -0.1704
-3.0770 33 56 -0.1481
-2.0770 33 6 -0.1712
-2.0770 33 7 -0.1777
-2.0770 33 8 -0.1687
-2.0770 33 9 -0.1714
-0.5913 33 </s> -0.3010
-2.0382 34 1 -0.2571
-2.0382 34 10 -0.1677
-2.0382 34 11 -0.1691
-2.0382 34 12 -0.1626
-2.0840 34 13 -0.1661
-2.0840 34 14 -0.1662
-2.0840 34 15 -0.1625
-2.0840 34 16 -0.1565
-2.0840 34 17 -0.1444
-2.1351 34 18 -0.1622
-2.1351 34 19 -0.1618
-2.0382 34 2 -0.2504
-2.1351 34 20 -0.1597
-2.1351 34 21 -0.1706
-2.1351 34 22 -0.1753
-2.1931 34 23 -0.1706
-2.2601 34 24 -0.1704
-2.2601 34 25 -0.1637
-2.2601 34 26 -0.1718
-2.2601 34 27 -0.1648
-2.2601 34 28 -0.1691
-2.2601 34 29 -0.1634
-2.0382 34 3 -0.1894
-2.3393 34 30 -0.1639
-2.3393 34 31 -0.1729
-2.5611 34 32 -0.1750
-2.5611 34 33 -0.1724
-2.7372 34 34 -0.1745
-2.7372 34 35 -0.1634
-3.0382 34 36 -0.1847
-3.0382 34 37 -0.1781
-2.0382 34 4 -0.1820
-2.0382 34 5 -0.1742
-2.0382 34 6 -0.1712
-2.0382 34 7 -0.1777
-2.0382 34 8 -0.1687
-2.0382 34 9 -0.1714
-0.5973 34 </s> -0.3010
-2.0133 35 1 -0.2571
-2.0133 35 10 -0.1677
-2.0645 35 11 -0.1691
-2.0645 35 12 -0.1626
-2.0645 35 13 -0.1661
-2.0645 35 14 -0.1662
-2.0645 35 15 -0.1625
-2.1224 35 16 -0.1565
-2.1894 35 17 -0.1444
-2.1894 35 18 -0.1622
-2.1894 35 19 -0.1618
-2.0133 35 2 -0.2504
-2.2686 35 20 -0.1597
-2.2686 35 21 -0.1706
-2.2686 35 22 -0.1753
-2.2686 35 23 -0.1706
-2.2686 35 24 -0.1704
-2.2686 35 25 -0.1637
-2.2686 35 26 -0.1718
-2.3655 35 27 -0.1648
-2.3655 35 28 -0.1691
-2.4904 35 29 -0.1634
-2.0133 35 3 -0.1894
-2.6665 35 30 -0.1639
-2.6665 35 31 -0.1729
-2.6665 35 32 -0.1750
-2.6665 35 33 -0.1724
-2.6665 35 34 -0.1745
-2.9675 35 35 -0.1634
-2.0133 35 4 -0.1820
-2.0133 35 5 -0.1742
-2.0133 35 6 -0.1712
-2.0133 35 7 -0.1777
-2.0133 35 8 -0.1687
-2.0133 35 9 -0.1714
-0.5661 35 </s> -0.3010
-2.0289 36 1 -0.2571
-2.0289 36 10 -0.1677
-2.0289 36 11 -0.1691
-2.0289 36 12 -0.1626
-2.0289 36 13 -0.1661
-2.1381 36 14 -0.1662
-2.1381 36 15 -0.1625
-2.1381 36 16 -0.1565
-2.1381 36 17 -0.1444
-2.1381 36 18 -0.1622
-2.1381 36 19 -0.1618
-2.0289 36 2 -0.2504
-2.1381 36 20 -0.1597
-2.1381 36 21 -0.1706
-2.1381 36 22 -0.1753
-2.2050 36 23 -0.1706
-2.2842 36 24 -0.1704
-2.2842 36 25 -0.1637
-2.2842 36 26 -0.1718
-2.2842 36 27 -0.1648
-2.2842 36 28 -0.1691
-2.2842 36 29 -0.1634
-2.0289 36 3 -0.1894
-2.2842 36 30 -0.1639
-2.2842 36 31 -0.1729
-2.2842 36 32 -0.1750
-2.3811 36 33 -0.1724
-2.5061 36 34 -0.1745
-2.5061 36 35 -0.1634
-2.5061 36 36 -0.1847
-2.5061 36 37 -0.1781
-2.5061 36 38 -0.1787
-2.9832 36 39 -0.1731
-2.0289 36 4 -0.1820
-2.9832 36 40 -0.1934
-2.9832 36 41 -0.1879
-2.9832 36 42 -0.1756
-2.9832 36 43 -0.1668
-2.0289 36 5 -0.1742
-2.0289 36 6 -0.1712
-2.0289 36 7 -0.1777
-2.0289 36 8 -0.1687
-2.0289 36 9 -0.1714
-0.6291 36 </s> -0.3010
-2.0853 37 1 -0.2571
-2.0853 37 10 -0.1677
-2.0853 37 11 -0.1691
-2.0853 37 12 -0.1626
-2.0853 37 13 -0.1661
-2.0853 37 14 -0.1662
-2.0853 37 15 -0.1625
-2.0853 37 16 -0.1565
-2.0853 37 17 -0.1444
-2.0853 37 18 -0.1622
-2.0853 37 19 -0.1618
-2.0853 37 2 -0.2504
-2.0853 37 20 -0.1597
-2.0853 37 21 -0.1706
-2.1523 37 22 -0.1753
-2.1523 37 23 -0.1706
-2.1523 37 24 -0.1704
-2.2315 37 25 -0.1637
-2.2315 37 26 -0.1718
-2.2315 37 27 -0.1648
-2.2315 37 28 -0.1691
-2.3284 37 29 -0.1634
-2.0853 37 3 -0.1894
-2.4533 37 30 -0.1639
-2.4533 37 31 -0.1729
-2.4533 37 32 -0.1750
-2.4533 37 33 -0.1724
-2.4533 37 34 -0.1745
-2.4533 37 35 -0.1634
-2.4533 37 36 -0.1847
-2.6294 37 37 -0.1781
-2.6294 37 38 -0.1787
-2.9304 37 39 -0.1731
-2.0853 37 4 -0.1820
-2.9304 37 40 -0.1934
-2.0853 37 5 -0.1742
-2.0853 37 6 -0.1712
-2.0853 37 7 -0.1777
-2.0853 37 8 -0.1687
-2.0853 37 9 -0.1714
-0.6082 37 </s> -0.3010
-2.0459 38 1 -0.2571
-2.0459 38 10 -0.1677
-2.0459 38 11 -0.1691
-2.0459 38 12 -0.1626
-2.0459 38 13 -0.1661
-2.0459 38 14 -0.1662
-2.0459 38 15 -0.1625
-2.0459 38 16 -0.1565
-2.0459 38 17 -0.1444
-2.0459 38 18 -0.1622
-2.0459 38 19 -0.1618
-2.0459 38 2 -0.2504
-2.0459 38 20 -0.1597
-2.0459 38 21 -0.1706
-2.0459 38 22 -0.1753
-2.1128 38 23 -0.1706
-2.2889 38 24 -0.1704
-2.2889 38 25 -0.1637
-2.2889 38 26 -0.1718
-2.2889 38 27 -0.1648
-2.2889 38 28 -0.1691
-2.4139 38 29 -0.1634
-2.0459 38 3 -0.1894
-2.4139 38 30 -0.1639
-2.5899 38 31 -0.1729
-2.8910 38 32 -0.1750
-2.8910 38 33 -0.1724
-2.8910 38 34 -0.1745
-2.8910 38 35 -0.1634
-2.8910 38 36 -0.1847
-2.8910 38 37 -0.1781
-2.8910 38 38 -0.1787
-2.8910 38 39 -0.1731
-2.0459 38 4 -0.1820
-2.8910 38 40 -0.1934
-2.8910 38 41 -0.1879
-2.0459 38 5 -0.1742
-2.0459 38 6 -0.1712
-2.0459 38 7 -0.1777
-2.0459 38 8 -0.1687
-2.0459 38 9 -0.1714
-0.6099 38 </s> -0.3010
-1.9836 39 1 -0.2571
-2.0505 39 10 -0.1677
-2.0505 39 11 -0.1691
-2.0505 39 12 -0.1626
-2.0505 39 13 -0.1661
-2.0505 39 14 -0.1662
-2.1297 39 15 -0.1625
-2.1297 39 16 -0.1565
-2.1297 39 17 -0.1444
-2.1297 39 18 -0.1622
-2.2266 39 19 -0.1618
-1.9836 39 2 -0.2504
-2.2266 39 20 -0.1597
-2.2266 39 21 -0.1706
-2.2266 39 22 -0.1753
-2.2266 39 23 -0.1706
-2.3515 39 24 -0.1704
-2.3515 39 25 -0.1637
-2.3515 39 26 -0.1718
-2.3515 39 27 -0.1648
-2.3515 39 28 -0.1691
-2.3515 39 29 -0.1634
-1.9836 39 3 -0.1894
-2.5276 39 30 -0.1639
-2.8287 39 31 -0.1729
-2.8287 39 32 -0.1750
-2.8287 39 33 -0.1724
-2.8287 39 34 -0.1745
-2.8287 39 35 -0.1634
-2.8287 39 36 -0.1847
-2.8287 39 37 -0.1781
-2.8287 39 38 -0.1787
-2.8287 39 39 -0.1731
-1.9836 39 4 -0.1820
-2.8287 39 40 -0.1934
-2.8287 39 41 -0.1879
-2.8287 39 42 -0.1756
-2.8287 39 43 -0.1668
-1.9836 39 5 -0.1742
-1.9836 39 6 -0.1712
-1.9836 39 7 -0.1777
-1.9836 39 8 -0.1687
-2.0505 39 9 -0.1714
-0.5931 39 </s> -0.3010
-1.9620 4 1 -0.2571
-1.9869 4 10 -0.1677
-1.9869 4 11 -0.1691
-2.0042 4 12 -0.1626
-2.0132 4 13 -0.1661
-2.0223 4 14 -0.1662
-2.0412 4 15 -0.1625
-2.0412 4 16 -0.1565
-2.0712 4 17 -0.1444
-2.1262 4 18 -0.1622
-2.1630 4 19 -0.1618
-1.9620 4 2 -0.2504
-2.1893 4 20 -0.1597
-2.2031 4 21 -0.1706
-2.2631 4 22 -0.1753
-2.3520 4 23 -0.1706
-2.3722 4 24 -0.1704
-2.4392 4 25 -0.1637
-2.4903 4 26 -0.1718
-2.5183 4 27 -0.1648
-2.5483 4 28 -0.1691
-2.5483 4 29 -0.1634
-1.9620 4 3 -0.1894
-2.5483 4 30 -0.1639
-2.5483 4 31 -0.1729
-2.6530 4 32 -0.1750
-2.6944 4 33 -0.1724
-2.6944 4 34 -0.1745
-2.7402 4 35 -0.1634
-2.7913 4 36 -0.1847
-2.7913 4 37 -0.1781
-2.8493 4 38 -0.1787
-2.8493 4 39 -0.1731
-1.9620 4 4 -0.1820
-2.8493 4 40 -0.1934
-2.8493 4 41 -0.1879
-2.9163 4 42 -0.1756
-2.9163 4 43 -0.1668
-2.9955 4 44 -0.1966
-3.2173 4 45 -0.1754
-3.2173 4 46 -0.1857
-3.2173 4 47 -0.1753
-3.2173 4 48 -0.2151
-3.2173 4 49 -0.2086
-1.9620 4 5 -0.1742
-3.6944 4 50 -0.2066
-3.6944 4 51 -0.2116
-3.6944 4 52 -0.1811
-3.6944 4 53 -0.1043
-3.6944 4 54 -0.1323
-1.9620 4 6 -0.1712
-1.9784 4 7 -0.1777
-1.9784 4 8 -0.1687
-1.9784 4 9 -0.1714
-0.6203 4 </s> -0.3010
-2.0230 40 1 -0.2571
-2.0230 40 10 -0.1677
-2.0230 40 11 -0.1691
-2.0230 40 12 -0.1626
-2.0230 40 13 -0.1661
-2.0230 40 14 -0.1662
-2.0230 40 15 -0.1625
-2.0230 40 16 -0.1565
-2.0899 40 17 -0.1444
-2.0899 40 18 -0.1622
-2.1691 40 19 -0.1618
-2.0230 40 2 -0.2504
-2.1691 40 20 -0.1597
-2.1691 40 21 -0.1706
-2.1691 40 22 -0.1753
-2.1691 40 23 -0.1706
-2.2660 40 24 -0.1704
-2.2660 40 25 -0.1637
-2.2660 40 26 -0.1718
-2.2660 40 27 -0.1648
-2.2660 40 28 -0.1691
-2.2660 40 29 -0.1634
-2.0230 40 3 -0.1894
-2.2660 40 30 -0.1639
-2.2660 40 31 -0.1729
-2.3909 40 32 -0.1750
-2.5670 40 33 -0.1724
-2.5670 40 34 -0.1745
-2.5670 40 35 -0.1634
-2.5670 40 36 -0.1847
-2.5670 40 37 -0.1781
-2.5670 40 38 -0.1787
-2.8681 40 39 -0.1731
-2.0230 40 4 -0.1820
-2.8681 40 40 -0.1934
-2.8681 40 41 -0.1879
-2.8681 40 42 -0.1756
-2.8681 40 43 -0.1668
-2.8681 40 44 -0.1966
-2.8681 40 45 -0.1754
-2.8681 40 46 -0.1857
-2.8681 40 47 -0.1753
-2.8681 40 48 -0.2151
-2.8681 40 49 -0.2086
-2.0230 40 5 -0.1742
-2.0230 40 6 -0.1712
-2.0230 40 7 -0.1777
-2.0230 40 8 -0.1687
-2.0230 40 9 -0.1714
-0.6585 40 </s> -0.3010
-2.0198 41 1 -0.2571
-2.0198 41 10 -0.1677
-2.0198 41 11 -0.1691
-2.0198 41 12 -0.1626
-2.0198 41 13 -0.1661
-2.0198 41 14 -0.1662
-2.0990 41 15 -0.1625
-2.0990 41 16 -0.1565
-2.0990 41 17 -0.1444
-2.0990 41 18 -0.1622
-2.1959 41 19 -0.1618
-2.0198 41 2 -0.2504
-2.1959 41 20 -0.1597
-2.1959 41 21 -0.1706
-2.1959 41 22 -0.1753
-2.1959 41 23 -0.1706
-2.1959 41 24 -0.1704
-2.1959 41 25 -0.1637
-2.1959 41 26 -0.1718
-2.4969 41 27 -0.1648
-2.4969 41 28 -0.1691
-2.4969 41 29 -0.1634
-2.0198 41 3 -0.1894
-2.7980 41 30 -0.1639
-2.7980 41 31 -0.1729
-2.7980 41 32 -0.1750
-2.7980 41 33 -0.1724
-2.7980 41 34 -0.1745
-2.7980 41 35 -0.1634
-2.7980 41 36 -0.1847
-2.7980 41 37 -0.1781
-2.7980 41 38 -0.1787
-2.7980 41 39 -0.1731
-2.0198 41 4 -0.1820
-2.7980 41 40 -0.1934
-2.7980 41 41 -0.1879
-2.7980 41 42 -0.1756
-2.7980 41 43 -0.1668
-2.7980 41 44 -0.1966
-2.7980 41 45 -0.1754
-2.7980 41 46 -0.1857
-2.7980 41 47 -0.1753
-2.7980 41 48 -0.2151
-2.7980 41 49 -0.2086
-2.0198 41 5 -0.1742
-2.7980 41 50 -0.2066
-2.7980 41 51 -0.2116
-2.7980 41 52 -0.1811
-2.7980 41 53 -0.1043
-2.7980 41 54 -0.1323
-2.7980 41 55 -0.1704
-2.7980 41 56 -0.1481
-2.7980 41 57 -0.1739
-2.0198 41 6 -0.1712
-2.0198 41 7 -0.1777
-2.0198 41 8 -0.1687
-2.0198 41 9 -0.1714
-0.6396 41 </s> -0.3010
-1.9526 42 1 -0.2571
-1.9526 42 10 -0.1677
-1.9526 42 11 -0.1691
-1.9526 42 12 -0.1626
-2.0318 42 13 -0.1661
-2.0318 42 14 -0.1662
-2.0318 42 15 -0.1625
-2.0318 42 16 -0.1565
-2.0318 42 17 -0.1444
-2.1287 42 18 -0.1622
-2.1287 42 19 -0.1618
-1.9526 42 2 -0.2504
-2.1287 42 20 -0.1597
-2.2537 42 21 -0.1706
-2.2537 42 22 -0.1753
-2.4298 42 23 -0.1706
-2.4298 42 24 -0.1704
-2.4298 42 25 -0.1637
-2.7308 42 26 -0.1718
-2.7308 42 27 -0.1648
-2.7308 42 28 -0.1691
-2.7308 42 29 -0.1634
-1.9526 42 3 -0.1894
-2.7308 42 30 -0.1639
-2.7308 42 31 -0.1729
-2.7308 42 32 -0.1750
-2.7308 42 33 -0.1724
-2.7308 42 34 -0.1745
-2.7308 42 35 -0.1634
-2.7308 42 36 -0.1847
-2.7308 42 37 -0.1781
-2.7308 42 38 -0.1787
-1.9526 42 4 -0.1820
-1.9526 42 5 -0.1742
-1.9526 42 6 -0.1712
-1.9526 42 7 -0.1777
-1.9526 42 8 -0.1687
-1.9526 42 9 -0.1714
-0.6004 42 </s> -0.3010
-1.9768 43 1 -0.2571
-2.0737 43 10 -0.1677
-2.0737 43 11 -0.1691
-2.0737 43 12 -0.1626
-2.0737 43 13 -0.1661
-2.1987 43 14 -0.1662
-2.1987 43 15 -0.1625
-2.1987 43 16 -0.1565
-2.1987 43 17 -0.1444
-2.1987 43 18 -0.1622
-2.1987 43 19 -0.1618
-1.9768 43 2 -0.2504
-2.1987 43 20 -0.1597
-2.1987 43 21 -0.1706
-2.1987 43 22 -0.1753
-2.1987 43 23 -0.1706
-2.1987 43 24 -0.1704
-2.1987 43 25 -0.1637
-2.1987 43 26 -0.1718
-2.1987 43 27 -0.1648
-2.3747 43 28 -0.1691
-2.6758 43 29 -0.1634
-1.9768 43 3 -0.1894
-2.6758 43 30 -0.1639
-2.6758 43 31 -0.1729
-2.6758 43 32 -0.1750
-2.6758 43 33 -0.1724
-2.6758 43 34 -0.1745
-2.6758 43 35 -0.1634
-2.6758 43 36 -0.1847
-2.6758 43 37 -0.1781
-2.6758 43 38 -0.1787
-1.9768 43 4 -0.1820
-1.9768 43 5 -0.1742
-2.0737 43 6 -0.1712
-2.0737 43 7 -0.1777
-2.0737 43 8 -0.1687
-2.0737 43 9 -0.1714
-0.5754 43 </s> -0.3010
-2.0204 44 1 -0.2571
-2.0204 44 10 -0.1677
-2.0204 44 11 -0.1691
-2.0204 44 12 -0.1626
-2.0204 44 13 -0.1661
-2.0204 44 14 -0.1662
-2.0204 44 15 -0.1625
-2.0204 44 16 -0.1565
-2.0204 44 17 -0.1444
-2.0204 44 18 -0.1622
-2.0204 44 19 -0.1618
-2.0204 44 2 -0.2504
-2.0204 44 20 -0.1597
-2.0204 44 21 -0.1706
-2.0204 44 22 -0.1753
-2.0204 44 23 -0.1706
-2.0204 44 24 -0.1704
-2.0204 44 25 -0.1637
-2.0204 44 26 -0.1718
-2.0204 44 27 -0.1648
-2.1173 44 28 -0.1691
-2.2422 44 29 -0.1634
-2.0204 44 3 -0.1894
-2.2422 44 30 -0.1639
-2.4183 44 31 -0.1729
-2.7193 44 32 -0.1750
-2.7193 44 33 -0.1724
-2.7193 44 34 -0.1745
-2.0204 44 4 -0.1820
-2.0204 44 5 -0.1742
-2.0204 44 6 -0.1712
-2.0204 44 7 -0.1777
-2.0204 44 8 -0.1687
-2.0204 44 9 -0.1714
-0.6701 44 </s> -0.3010
-1.9096 45 1 -0.2571
-2.0065 45 10 -0.1677
-2.0065 45 11 -0.1691
-2.0065 45 12 -0.1626
-2.0065 45 13 -0.1661
-2.0065 45 14 -0.1662
-2.0065 45 15 -0.1625
-2.0065 45 16 -0.1565
-2.0065 45 17 -0.1444
-2.0065 45 18 -0.1622
-2.1314 45 19 -0.1618
-1.9096 45 2 -0.2504
-2.1314 45 20 -0.1597
-2.1314 45 21 -0.1706
-2.1314 45 22 -0.1753
-2.1314 45 23 -0.1706
-2.1314 45 24 -0.1704
-2.1314 45 25 -0.1637
-2.6085 45 26 -0.1718
-2.6085 45 27 -0.1648
-2.6085 45 28 -0.1691
-1.9096 45 3 -0.1894
-1.9096 45 4 -0.1820
-1.9096 45 5 -0.1742
-2.0065 45 6 -0.1712
-2.0065 45 7 -0.1777
-2.0065 45 8 -0.1687
-2.0065 45 9 -0.1714
-0.5999 45 </s> -0.3010
-1.9201 46 1 -0.2571
-1.9201 46 10 -0.1677
-1.9201 46 11 -0.1691
-1.9201 46 12 -0.1626
-2.0170 46 13 -0.1661
-2.1420 46 14 -0.1662
-2.1420 46 15 -0.1625
-2.1420 46 16 -0.1565
-2.1420 46 17 -0.1444
-2.1420 46 18 -0.1622
-2.1420 46 19 -0.1618
-1.9201 46 2 -0.2504
-2.1420 46 20 -0.1597
-2.1420 46 21 -0.1706
-2.1420 46 22 -0.1753
-2.1420 46 23 -0.1706
-2.1420 46 24 -0.1704
-2.3181 46 25 -0.1637
-2.3181 46 26 -0.1718
-2.3181 46 27 -0.1648
-2.3181 46 28 -0.1691
-2.6191 46 29 -0.1634
-1.9201 46 3 -0.1894
-2.6191 46 30 -0.1639
-2.6191 46 31 -0.1729
-2.6191 46 32 -0.1750
-2.6191 46 33 -0.1724
-2.6191 46 34 -0.1745
-1.9201 46 4 -0.1820
-1.9201 46 5 -0.1742
-1.9201 46 6 -0.1712
-1.9201 46 7 -0.1777
-1.9201 46 8 -0.1687
-1.9201 46 9 -0.1714
-0.6323 46 </s> -0.3010
-1.8401 47 1 -0.2571
-1.9370 47 10 -0.1677
-2.0620 47 11 -0.1691
-2.0620 47 12 -0.1626
-2.0620 47 13 -0.1661
-2.0620 47 14 -0.1662
-2.0620 47 15 -0.1625
-2.2380 47 16 -0.1565
-2.2380 47 17 -0.1444
-2.2380 47 18 -0.1622
-2.2380 47 19 -0.1618
-1.8401 47 2 -0.2504
-2.2380 47 20 -0.1597
-2.2380 47 21 -0.1706
-2.2380 47 22 -0.1753
-2.2380 47 23 -0.1706
-2.5391 47 24 -0.1704
-2.5391 47 25 -0.1637
-2.5391 47 26 -0.1718
-2.5391 47 27 -0.1648
-2.5391 47 28 -0.1691
-2.5391 47 29 -0.1634
-1.8401 47 3 -0.1894
-2.5391 47 30 -0.1639
-2.5391 47 31 -0.1729
-1.8401 47 4 -0.1820
-1.8401 47 5 -0.1742
-1.8401 47 6 -0.1712
-1.8401 47 7 -0.1777
-1.9370 47 8 -0.1687
-1.9370 47 9 -0.1714
-0.5996 47 </s> -0.3010
-1.9445 48 1 -0.2571
-1.9445 48 10 -0.1677
-1.9445 48 11 -0.1691
-1.9445 48 12 -0.1626
-1.9445 48 13 -0.1661
-1.9445 48 14 -0.1662
-1.9445 48 15 -0.1625
-2.0414 48 16 -0.1565
-2.0414 48 17 -0.1444
-2.0414 48 18 -0.1622
-2.0414 48 19 -0.1618
-1.9445 48 2 -0.2504
-2.0414 48 20 -0.1597
-2.0414 48 21 -0.1706
-2.0414 48 22 -0.1753
-2.3424 48 23 -0.1706
-2.3424 48 24 -0.1704
-2.3424 48 25 -0.1637
-2.3424 48 26 -0.1718
-2.3424 48 27 -0.1648
-2.3424 48 28 -0.1691
-2.3424 48 29 -0.1634
-1.9445 48 3 -0.1894
-2.3424 48 30 -0.1639
-2.3424 48 31 -0.1729
-2.3424 48 32 -0.1750
-2.3424 48 33 -0.1724
-2.3424 48 34 -0.1745
-2.3424 48 35 -0.1634
-2.6435 48 36 -0.1847
-2.6435 48 37 -0.1781
-2.6435 48 38 -0.1787
-2.6435 48 39 -0.1731
-1.9445 48 4 -0.1820
-2.6435 48 40 -0.1934
-2.6435 48 41 -0.1879
-2.6435 48 42 -0.1756
-2.6435 48 43 -0.1668
-2.6435 48 44 -0.1966
-2.6435 48 45 -0.1754
-2.6435 48 46 -0.1857
-2.6435 48 47 -0.1753
-1.9445 48 5 -0.1742
-1.9445 48 6 -0.1712
-1.9445 48 7 -0.1777
-1.9445 48 8 -0.1687
-1.9445 48 9 -0.1714
-0.7458 48 </s> -0.3010
-1.9845 49 1 -0.2571
-1.9845 49 10 -0.1677
-1.9845 49 11 -0.1691
-1.9845 49 12 -0.1626
-1.9845 49 13 -0.1661
-1.9845 49 14 -0.1662
-1.9845 49 15 -0.1625
-1.9845 49 16 -0.1565
-1.9845 49 17 -0.1444
-1.9845 49 18 -0.1622
-1.9845 49 19 -0.1618
-1.9845 49 2 -0.2504
-1.9845 49 20 -0.1597
-1.9845 49 21 -0.1706
-2.1095 49 22 -0.1753
-2.1095 49 23 -0.1706
-2.1095 49 24 -0.1704
-2.1095 49 25 -0.1637
-2.1095 49 26 -0.1718
-2.2856 49 27 -0.1648
-2.2856 49 28 -0.1691
-2.2856 49 29 -0.1634
-1.9845 49 3 -0.1894
-2.2856 49 30 -0.1639
-2.2856 49 31 -0.1729
-2.2856 49 32 -0.1750
-2.2856 49 33 -0.1724
-2.5866 49 34 -0.1745
-2.5866 49 35 -0.1634
-2.5866 49 36 -0.1847
-2.5866 49 37 -0.1781
-2.5866 49 38 -0.1787
-2.5866 49 39 -0.1731
-1.9845 49 4 -0.1820
-1.9845 49 5 -0.1742
-1.9845 49 6 -0.1712
-1.9845 49 7 -0.1777
-1.9845 49 8 -0.1687
-1.9845 49 9 -0.1714
-0.7174 49 </s> -0.3010
-1.9981 5 1 -0.2571
-1.9981 5 10 -0.1677
-1.9981 5 11 -0.1691
-2.0075 5 12 -0.1626
-2.0268 5 13 -0.1661
-2.0368 5 14 -0.1662
-2.1020 5 15 -0.1625
-2.1262 5 16 -0.1565
-2.1388 5 17 -0.1444
-2.1651 5 18 -0.1622
-2.1651 5 19 -0.1618
-1.9981 5 2 -0.2504
-2.1931 5 20 -0.1597
-2.2078 5 21 -0.1706
-2.2553 5 22 -0.1753
-2.2723 5 23 -0.1706
-2.3085 5 24 -0.1704
-2.3085 5 25 -0.1637
-2.3480 5 26 -0.1718
-2.3915 5 27 -0.1648
-2.4661 5 28 -0.1691
-2.4942 5 29 -0.1634
-1.9981 5 3 -0.1894
-2.4942 5 30 -0.1639
-2.5563 5 31 -0.1729
-2.6702 5 32 -0.1750
-2.7672 5 33 -0.1724
-2.8921 5 34 -0.1745
-2.8921 5 35 -0.1634
-2.8921 5 36 -0.1847
-2.8921 5 37 -0.1781
-2.8921 5 38 -0.1787
-2.8921 5 39 -0.1731
-1.9981 5 4 -0.1820
-2.9713 5 40 -0.1934
-2.9713 5 41 -0.1879
-3.0682 5 42 -0.1756
-3.1931 5 43 -0.1668
-3.3692 5 44 -0.1966
-3.3692 5 45 -0.1754
-3.3692 5 46 -0.1857
-3.3692 5 47 -0.1753
-3.6702 5 48 -0.2151
-1.9981 5 5 -0.1742
-1.9981 5 6 -0.1712
-1.9981 5 7 -0.1777
-1.9981 5 8 -0.1687
-1.9981 5 9 -0.1714
-0.5965 5 </s> -0.3010
-1.9395 50 1 -0.2571
-1.9395 50 10 -0.1677
-1.9395 50 11 -0.1691
-2.0645 50 12 -0.1626
-2.0645 50 13 -0.1661
-2.0645 50 14 -0.1662
-2.0645 50 15 -0.1625
-2.0645 50 16 -0.1565
-2.0645 50 17 -0.1444
-2.0645 50 18 -0.1622
-2.0645 50 19 -0.1618
-1.9395 50 2 -0.2504
-2.0645 50 20 -0.1597
-2.0645 50 21 -0.1706
-2.0645 50 22 -0.1753
-2.0645 50 23 -0.1706
-2.2405 50 24 -0.1704
-2.2405 50 25 -0.1637
-2.2405 50 26 -0.1718
-2.5416 50 27 -0.1648
-2.5416 50 28 -0.1691
-2.5416 50 29 -0.1634
-1.9395 50 3 -0.1894
-2.5416 50 30 -0.1639
-2.5416 50 31 -0.1729
-2.5416 50 32 -0.1750
-2.5416 50 33 -0.1724
-2.5416 50 34 -0.1745
-2.5416 50 35 -0.1634
-2.5416 50 36 -0.1847
-2.5416 50 37 -0.1781
-2.5416 50 38 -0.1787
-2.5416 50 39 -0.1731
-1.9395 50 4 -0.1820
-2.5416 50 40 -0.1934
-2.5416 50 41 -0.1879
-2.5416 50 42 -0.1756
-2.5416 50 43 -0.1668
-2.5416 50 44 -0.1966
-2.5416 50 45 -0.1754
-2.5416 50 46 -0.1857
-1.9395 50 5 -0.1742
-1.9395 50 6 -0.1712
-1.9395 50 7 -0.1777
-1.9395 50 8 -0.1687
-1.9395 50 9 -0.1714
-0.7091 50 </s> -0.3010
-2.0594 51 1 -0.2571
-2.0594 51 10 -0.1677
-2.0594 51 11 -0.1691
-2.0594 51 12 -0.1626
-2.0594 51 13 -0.1661
-2.0594 51 14 -0.1662
-2.0594 51 15 -0.1625
-2.0594 51 16 -0.1565
-2.0594 51 17 -0.1444
-2.0594 51 18 -0.1622
-2.0594 51 19 -0.1618
-2.0594 51 2 -0.2504
-2.0594 51 20 -0.1597
-2.0594 51 21 -0.1706
-2.2355 51 22 -0.1753
-2.2355 51 23 -0.1706
-2.5366 51 24 -0.1704
-2.5366 51 25 -0.1637
-2.5366 51 26 -0.1718
-2.5366 51 27 -0.1648
-2.5366 51 28 -0.1691
-2.5366 51 29 -0.1634
-2.0594 51 3 -0.1894
-2.5366 51 30 -0.1639
-2.5366 51 31 -0.1729
-2.5366 51 32 -0.1750
-2.5366 51 33 -0.1724
-2.5366 51 34 -0.1745
-2.5366 51 35 -0.1634
-2.5366 51 36 -0.1847
-2.5366 51 37 -0.1781
-2.5366 51 38 -0.1787
-2.5366 51 39 -0.1731
-2.0594 51 4 -0.1820
-2.5366 51 40 -0.1934
-2.5366 51 41 -0.1879
-2.5366 51 42 -0.1756
-2.5366 51 43 -0.1668
-2.5366 51 44 -0.1966
-2.5366 51 45 -0.1754
-2.5366 51 46 -0.1857
-2.5366 51 47 -0.1753
-2.5366 51 48 -0.2151
-2.5366 51 49 -0.2086
-2.0594 51 5 -0.1742
-2.5366 51 50 -0.2066
-2.5366 51 51 -0.2116
-2.5366 51 52 -0.1811
-2.5366 51 53 -0.1043
-2.5366 51 54 -0.1323
-2.5366 51 55 -0.1704
-2.5366 51 56 -0.1481
-2.5366 51 57 -0.1739
-2.5366 51 58 -0.1656
-2.5366 51 59 -0.2016
-2.0594 51 6 -0.1712
-2.5366 51 60 -0.2041
-2.5366 51 61 -0.1659
-2.5366 51 62 -0.1821
-2.5366 51 63 -0.2000
-2.5366 51 64 -0.1829
-2.0594 51 7 -0.1777
-2.0594 51 8 -0.1687
-2.0594 51 9 -0.1714
-0.7304 51 </s> -0.3010
-1.8884 52 1 -0.2571
-1.8884 52 10 -0.1677
-1.8884 52 11 -0.1691
-2.0645 52 12 -0.1626
-2.0645 52 13 -0.1661
-2.0645 52 14 -0.1662
-2.0645 52 15 -0.1625
-2.3655 52 16 -0.1565
-2.3655 52 17 -0.1444
-2.3655 52 18 -0.1622
-2.3655 52 19 -0.1618
-1.8884 52 2 -0.2504
-2.3655 52 20 -0.1597
-2.3655 52 21 -0.1706
-2.3655 52 22 -0.1753
-2.3655 52 23 -0.1706
-2.3655 52 24 -0.1704
-2.3655 52 25 -0.1637
-2.3655 52 26 -0.1718
-2.3655 52 27 -0.1648
-2.3655 52 28 -0.1691
-2.3655 52 29 -0.1634
-1.8884 52 3 -0.1894
-2.3655 52 30 -0.1639
-2.3655 52 31 -0.1729
-2.3655 52 32 -0.1750
-2.3655 52 33 -0.1724
-2.3655 52 34 -0.1745
-1.8884 52 4 -0.1820
-1.8884 52 5 -0.1742
-1.8884 52 6 -0.1712
-1.8884 52 7 -0.1777
-1.8884 52 8 -0.1687
-1.8884 52 9 -0.1714
-0.6173 52 </s> -0.3010
-1.8451 53 1 -0.2571
-2.1461 53 10 -0.1677
-2.1461 53 11 -0.1691
-2.1461 53 12 -0.1626
-1.8451 53 2 -0.2504
-1.8451 53 3 -0.1894
-1.8451 53 4 -0.1820
-1.8451 53 5 -0.1742
-1.8451 53 6 -0.1712
-1.8451 53 7 -0.1777
-2.1461 53 8 -0.1687
-2.1461 53 9 -0.1714
-0.4386 53 </s> -0.3010
-1.8633 54 1 -0.2571
-2.1644 54 10 -0.1677
-2.1644 54 11 -0.1691
-2.1644 54 12 -0.1626
-2.1644 54 13 -0.1661
-2.1644 54 14 -0.1662
-2.1644 54 15 -0.1625
-2.1644 54 16 -0.1565
-2.1644 54 17 -0.1444
-1.8633 54 2 -0.2504
-1.8633 54 3 -0.1894
-1.8633 54 4 -0.1820
-1.8633 54 5 -0.1742
-1.8633 54 6 -0.1712
-1.8633 54 7 -0.1777
-1.8633 54 8 -0.1687
-1.8633 54 9 -0.1714
-0.4923 54 </s> -0.3010
-1.8865 55 1 -0.2571
-1.8865 55 10 -0.1677
-1.8865 55 11 -0.1691
-1.8865 55 12 -0.1626
-1.8865 55 13 -0.1661
-2.1875 55 14 -0.1662
-2.1875 55 15 -0.1625
-2.1875 55 16 -0.1565
-2.1875 55 17 -0.1444
-2.1875 55 18 -0.1622
-2.1875 55 19 -0.1618
-1.8865 55 2 -0.2504
-2.1875 55 20 -0.1597
-2.1875 55 21 -0.1706
-2.1875 55 22 -0.1753
-2.1875 55 23 -0.1706
-2.1875 55 24 -0.1704
-1.8865 55 3 -0.1894
-1.8865 55 4 -0.1820
-1.8865 55 5 -0.1742
-1.8865 55 6 -0.1712
-1.8865 55 7 -0.1777
-1.8865 55 8 -0.1687
-1.8865 55 9 -0.1714
-0.5855 55 </s> -0.3010
-1.8062 56 1 -0.2571
-1.8062 56 10 -0.1677
-1.8062 56 11 -0.1691
-1.8062 56 12 -0.1626
-2.1072 56 13 -0.1661
-2.1072 56 14 -0.1662
-1.8062 56 2 -0.2504
-1.8062 56 3 -0.1894
-1.8062 56 4 -0.1820
-1.8062 56 5 -0.1742
-1.8062 56 6 -0.1712
-1.8062 56 7 -0.1777
-1.8062 56 8 -0.1687
-1.8062 56 9 -0.1714
-0.5274 56 </s> -0.3010
-1.8261 57 1 -0.2571
-1.8261 57 10 -0.1677
-1.8261 57 11 -0.1691
-1.8261 57 12 -0.1626
-2.1271 57 13 -0.1661
-2.1271 57 14 -0.1662
-2.1271 57 15 -0.1625
-2.1271 57 16 -0.1565
-2.1271 57 17 -0.1444
-2.1271 57 18 -0.1622
-2.1271 57 19 -0.1618
-1.8261 57 2 -0.2504
-2.1271 57 20 -0.1597
-2.1271 57 21 -0.1706
-1.8261 57 3 -0.1894
-1.8261 57 4 -0.1820
-1.8261 57 5 -0.1742
-1.8261 57 6 -0.1712
-1.8261 57 7 -0.1777
-1.8261 57 8 -0.1687
-1.8261 57 9 -0.1714
-0.5956 57 </s> -0.3010
-1.7482 58 1 -0.2571
-1.7482 58 10 -0.1677
-1.7482 58 11 -0.1691
-1.7482 58 12 -0.1626
-2.0492 58 13 -0.1661
-2.0492 58 14 -0.1662
-1.7482 58 2 -0.2504
-1.7482 58 3 -0.1894
-1.7482 58 4 -0.1820
-1.7482 58 5 -0.1742
-1.7482 58 6 -0.1712
-1.7482 58 7 -0.1777
-1.7482 58 8 -0.1687
-1.7482 58 9 -0.1714
-0.5721 58 </s> -0.3010
-1.8195 59 1 -0.2571
-1.8195 59 10 -0.1677
-1.8195 59 11 -0.1691
-1.8195 59 12 -0.1626
-1.8195 59 13 -0.1661
-1.8195 59 14 -0.1662
-1.8195 59 15 -0.1625
-1.8195 59 16 -0.1565
-1.8195 59 17 -0.1444
-1.8195 59 18 -0.1622
-2.1206 59 19 -0.1618
-1.8195 59 2 -0.2504
-2.1206 59 20 -0.1597
-2.1206 59 21 -0.1706
-1.8195 59 3 -0.1894
-1.8195 59 4 -0.1820
-1.8195 59 5 -0.1742
-1.8195 59 6 -0.1712
-1.8195 59 7 -0.1777
-1.8195 59 8 -0.1687
-1.8195 59 9 -0.1714
-0.6892 59 </s> -0.3010
-2.0348 6 1 -0.2571
-2.0348 6 10 -0.1677
-2.0452 6 11 -0.1691
-2.0560 6 12 -0.1626
-2.0782 6 13 -0.1661
-2.0898 6 14 -0.1662
-2.1265 6 15 -0.1625
-2.1529 6 16 -0.1565
-2.1666 6 17 -0.1444
-2.1809 6 18 -0.1622
-2.2109 6 19 -0.1618
-2.0348 6 2 -0.2504
-2.2266 6 20 -0.1597
-2.2601 6 21 -0.1706
-2.2963 6 22 -0.1753
-2.3358 6 23 -0.1706
-2.4027 6 24 -0.1704
-2.4276 6 25 -0.1637
-2.4539 6 26 -0.1718
-2.4539 6 27 -0.1648
-2.5119 6 28 -0.1691
-2.5119 6 29 -0.1634
-2.0348 6 3 -0.1894
-2.5441 6 30 -0.1639
-2.6580 6 31 -0.1729
-2.6580 6 32 -0.1750
-2.6580 6 33 -0.1724
-2.7038 6 34 -0.1745
-2.7549 6 35 -0.1634
-2.8129 6 36 -0.1847
-2.8129 6 37 -0.1781
-2.8129 6 38 -0.1787
-2.8799 6 39 -0.1731
-2.0348 6 4 -0.1820
-2.8799 6 40 -0.1934
-2.9590 6 41 -0.1879
-2.9590 6 42 -0.1756
-3.0560 6 43 -0.1668
-3.0560 6 44 -0.1966
-3.0560 6 45 -0.1754
-3.0560 6 46 -0.1857
-3.0560 6 47 -0.1753
-3.0560 6 48 -0.2151
-3.0560 6 49 -0.2086
-2.0348 6 5 -0.1742
-3.1809 6 50 -0.2066
-3.1809 6 51 -0.2116
-3.1809 6 52 -0.1811
-3.1809 6 53 -0.1043
-3.1809 6 54 -0.1323
-3.1809 6 55 -0.1704
-3.1809 6 56 -0.1481
-3.3570 6 57 -0.1739
-3.3570 6 58 -0.1656
-3.3570 6 59 -0.2016
-2.0348 6 6 -0.1712
-3.3570 6 60 -0.2041
-3.3570 6 61 -0.1659
-3.3570 6 62 -0.1821
-3.3570 6 63 -0.2000
-3.3570 6 64 -0.1829
-3.3570 6 65 -0.2264
-3.3570 6 66 -0.2359
-3.6580 6 67 -0.1402
-3.6580 6 68 -0.2430
-3.6580 6 69 -0.2443
-2.0348 6 7 -0.1777
-3.6580 6 70 -0.1313
-3.6580 6 71 -0.2319
-2.0348 6 8 -0.1687
-2.0348 6 9 -0.1714
-0.5876 6 </s> -0.3010
-1.7782 60 1 -0.2571
-1.7782 60 10 -0.1677
-1.7782 60 11 -0.1691
-1.7782 60 12 -0.1626
-1.7782 60 13 -0.1661
-1.7782 60 14 -0.1662
-2.0792 60 15 -0.1625
-2.0792 60 16 -0.1565
-2.0792 60 17 -0.1444
-2.0792 60 18 -0.1622
-2.0792 60 19 -0.1618
-1.7782 60 2 -0.2504
-2.0792 60 20 -0.1597
-2.0792 60 21 -0.1706
-2.0792 60 22 -0.1753
-1.7782 60 3 -0.1894
-1.7782 60 4 -0.1820
-1.7782 60 5 -0.1742
-1.7782 60 6 -0.1712
-1.7782 60 7 -0.1777
-1.7782 60 8 -0.1687
-1.7782 60 9 -0.1714
-0.6990 60 </s> -0.3010
-1.6335 61 1 -0.2571
-1.9345 61 10 -0.1677
-1.9345 61 11 -0.1691
-1.6335 61 2 -0.2504
-1.6335 61 3 -0.1894
-1.6335 61 4 -0.1820
-1.6335 61 5 -0.1742
-1.6335 61 6 -0.1712
-1.6335 61 7 -0.1777
-1.6335 61 8 -0.1687
-1.6335 61 9 -0.1714
-0.5728 61 </s> -0.3010
-1.6812 62 1 -0.2571
-1.6812 62 10 -0.1677
-1.6812 62 11 -0.1691
-1.6812 62 12 -0.1626
-1.9823 62 13 -0.1661
-1.6812 62 2 -0.2504
-1.6812 62 3 -0.1894
-1.6812 62 4 -0.1820
-1.6812 62 5 -0.1742
-1.6812 62 6 -0.1712
-1.6812 62 7 -0.1777
-1.6812 62 8 -0.1687
-1.6812 62 9 -0.1714
-0.6205 62 </s> -0.3010
-1.7243 63 1 -0.2571
-1.7243 63 10 -0.1677
-1.7243 63 11 -0.1691
-1.7243 63 12 -0.1626
-2.0253 63 13 -0.1661
-2.0253 63 14 -0.1662
-2.0253 63 15 -0.1625
-2.0253 63 16 -0.1565
-2.0253 63 17 -0.1444
-2.0253 63 18 -0.1622
-2.0253 63 19 -0.1618
-1.7243 63 2 -0.2504
-1.7243 63 3 -0.1894
-1.7243 63 4 -0.1820
-1.7243 63 5 -0.1742
-1.7243 63 6 -0.1712
-1.7243 63 7 -0.1777
-1.7243 63 8 -0.1687
-1.7243 63 9 -0.1714
-0.6829 63 </s> -0.3010
-1.6232 64 1 -0.2571
-1.6232 64 10 -0.1677
-1.6232 64 11 -0.1691
-1.6232 64 2 -0.2504
-1.6232 64 3 -0.1894
-1.6232 64 4 -0.1820
-1.6232 64 5 -0.1742
-1.6232 64 6 -0.1712
-1.6232 64 7 -0.1777
-1.6232 64 8 -0.1687
-1.6232 64 9 -0.1714
-0.6232 64 </s> -0.3010
-1.7559 65 1 -0.2571
-1.7559 65 10 -0.1677
-1.7559 65 11 -0.1691
-1.7559 65 12 -0.1626
-1.7559 65 13 -0.1661
-1.7559 65 14 -0.1662
-2.0569 65 15 -0.1625
-2.0569 65 16 -0.1565
-2.0569 65 17 -0.1444
-2.0569 65 18 -0.1622
-2.0569 65 19 -0.1618
-1.7559 65 2 -0.2504
-2.0569 65 20 -0.1597
-2.0569 65 21 -0.1706
-2.0569 65 22 -0.1753
-2.0569 65 23 -0.1706
-2.0569 65 24 -0.1704
-2.0569 65 25 -0.1637
-1.7559 65 3 -0.1894
-1.7559 65 4 -0.1820
-1.7559 65 5 -0.1742
-1.7559 65 6 -0.1712
-1.7559 65 7 -0.1777
-1.7559 65 8 -0.1687
-1.7559 65 9 -0.1714
-0.8016 65 </s> -0.3010
-1.7853 66 1 -0.2571
-1.7853 66 10 -0.1677
-1.7853 66 11 -0.1691
-1.7853 66 12 -0.1626
-1.7853 66 13 -0.1661
-1.7853 66 14 -0.1662
-1.7853 66 15 -0.1625
-1.7853 66 16 -0.1565
-1.7853 66 17 -0.1444
-1.7853 66 18 -0.1622
-1.7853 66 19 -0.1618
-1.7853 66 2 -0.2504
-1.7853 66 20 -0.1597
-2.0864 66 21 -0.1706
-2.0864 66 22 -0.1753
-2.0864 66 23 -0.1706
-2.0864 66 24 -0.1704
-1.7853 66 3 -0.1894
-1.7853 66 4 -0.1820
-1.7853 66 5 -0.1742
-1.7853 66 6 -0.1712
-1.7853 66 7 -0.1777
-1.7853 66 8 -0.1687
-1.7853 66 9 -0.1714
-0.8559 66 </s> -0.3010
-1.6232 67 1 -0.2571
-1.6232 67 2 -0.2504
-1.6232 67 3 -0.1894
-1.6232 67 4 -0.1820
-1.6232 67 5 -0.1742
-1.6232 67 6 -0.1712
-1.6232 67 7 -0.1777
-1.6232 67 8 -0.1687
-0.5093 67 </s> -0.3010
-1.9823 68 1 -0.2571
-1.9823 68 10 -0.1677
-1.9823 68 11 -0.1691
-1.9823 68 12 -0.1626
-1.9823 68 13 -0.1661
-1.9823 68 14 -0.1662
-1.9823 68 15 -0.1625
-1.9823 68 16 -0.1565
-1.9823 68 17 -0.1444
-1.9823 68 18 -0.1622
-1.9823 68 19 -0.1618
-1.9823 68 2 -0.2504
-1.9823 68 20 -0.1597
-1.9823 68 21 -0.1706
-1.9823 68 22 -0.1753
-1.9823 68 23 -0.1706
-1.9823 68 24 -0.1704
-1.9823 68 25 -0.1637
-1.9823 68 26 -0.1718
-1.9823 68 27 -0.1648
-1.9823 68 28 -0.1691
-1.9823 68 29 -0.1634
-1.9823 68 3 -0.1894
-1.9823 68 30 -0.1639
-1.9823 68 31 -0.1729
-1.9823 68 32 -0.1750
-1.9823 68 33 -0.1724
-1.9823 68 34 -0.1745
-1.9823 68 35 -0.1634
-1.9823 68 36 -0.1847
-1.9823 68 4 -0.1820
-1.9823 68 5 -0.1742
-1.9823 68 6 -0.1712
-1.9823 68 7 -0.1777
-1.9823 68 8 -0.1687
-1.9823 68 9 -0.1714
-0.9031 68 </s> -0.3010
-1.9912 69 1 -0.2571
-1.9912 69 10 -0.1677
-1.9912 69 11 -0.1691
-1.9912 69 12 -0.1626
-1.9912 69 13 -0.1661
-1.9912 69 14 -0.1662
-1.9912 69 15 -0.1625
-1.9912 69 16 -0.1565
-1.9912 69 17 -0.1444
-1.9912 69 18 -0.1622
-1.9912 69 19 -0.1618
-1.9912 69 2 -0.2504
-1.9912 69 20 -0.1597
-1.9912 69 21 -0.1706
-1.9912 69 22 -0.1753
-1.9912 69 23 -0.1706
-1.9912 69 24 -0.1704
-1.9912 69 25 -0.1637
-1.9912 69 26 -0.1718
-1.9912 69 27 -0.1648
-1.9912 69 28 -0.1691
-1.9912 69 29 -0.1634
-1.9912 69 3 -0.1894
-1.9912 69 30 -0.1639
-1.9912 69 31 -0.1729
-1.9912 69 32 -0.1750
-1.9912 69 33 -0.1724
-1.9912 69 34 -0.1745
-1.9912 69 35 -0.1634
-1.9912 69 36 -0.1847
-1.9912 69 37 -0.1781
-1.9912 69 4 -0.1820
-1.9912 69 5 -0.1742
-1.9912 69 6 -0.1712
-1.9912 69 7 -0.1777
-1.9912 69 8 -0.1687
-1.9912 69 9 -0.1714
-0.9120 69 </s> -0.3010
-2.0818 7 1 -0.2571
-2.0818 7 10 -0.1677
-2.0931 7 11 -0.1691
-2.0931 7 12 -0.1626
-2.0931 7 13 -0.1661
-2.0931 7 14 -0.1662
-2.1165 7 15 -0.1625
-2.1165 7 16 -0.1565
-2.1414 7 17 -0.1444
-2.1957 7 18 -0.1622
-2.1957 7 19 -0.1618
-2.0818 7 2 -0.2504
-2.1957 7 20 -0.1597
-2.2257 7 21 -0.1706
-2.2415 7 22 -0.1753
-2.2579 7 23 -0.1706
-2.2579 7 24 -0.1704
-2.2749 7 25 -0.1637
-2.3304 7 26 -0.1718
-2.3718 7 27 -0.1648
-2.4176 7 28 -0.1691
-2.4967 7 29 -0.1634
-2.0818 7 3 -0.1894
-2.6314 7 30 -0.1639
-2.6314 7 31 -0.1729
-2.6314 7 32 -0.1750
-2.6314 7 33 -0.1724
-2.6314 7 34 -0.1745
-2.6728 7 35 -0.1634
-2.6728 7 36 -0.1847
-2.6728 7 37 -0.1781
-2.7186 7 38 -0.1787
-2.7697 7 39 -0.1731
-2.0818 7 4 -0.1820
-2.7697 7 40 -0.1934
-2.8947 7 41 -0.1879
-2.8947 7 42 -0.1756
-2.8947 7 43 -0.1668
-2.8947 7 44 -0.1966
-2.8947 7 45 -0.1754
-2.8947 7 46 -0.1857
-2.8947 7 47 -0.1753
-2.8947 7 48 -0.2151
-2.8947 7 49 -0.2086
-2.0818 7 5 -0.1742
-2.8947 7 50 -0.2066
-2.9739 7 51 -0.2116
-3.0708 7 52 -0.1811
-3.0708 7 53 -0.1043
-3.1957 7 54 -0.1323
-3.1957 7 55 -0.1704
-3.1957 7 56 -0.1481
-3.1957 7 57 -0.1739
-3.1957 7 58 -0.1656
-3.1957 7 59 -0.2016
-2.0818 7 6 -0.1712
-3.1957 7 60 -0.2041
-3.3718 7 61 -0.1659
-3.3718 7 62 -0.1821
-3.3718 7 63 -0.2000
-3.3718 7 64 -0.1829
-3.3718 7 65 -0.2264
-3.3718 7 66 -0.2359
-3.3718 7 67 -0.1402
-3.3718 7 68 -0.2430
-3.3718 7 69 -0.2443
-2.0818 7 7 -0.1777
-3.3718 7 70 -0.1313
-3.3718 7 71 -0.2319
-3.3718 7 72 -0.2341
-3.6728 7 73 -0.2668
-3.6728 7 74 -0.2604
-3.6728 7 75 -0.2272
-3.6728 7 76 -0.2467
-3.6728 7 77 -0.2648
-3.6728 7 78 -0.2894
-3.6728 7 79 -0.2467
-2.0818 7 8 -0.1687
-3.6728 7 80 -0.2632
-3.6728 7 81 -0.2672
-3.6728 7 82 -0.2374
-3.6728 7 83 -0.2704
-3.6728 7 84 -0.2583
-3.6728 7 85 -0.2609
-3.6728 7 86 -0.2672
-3.6728 7 87 -0.2304
-3.6728 7 88 -0.2704
-3.6728 7 89 -0.2892
-2.0818 7 9 -0.1714
-0.6069 7 </s> -0.3010
-1.5315 70 1 -0.2571
-1.5315 70 2 -0.2504
-1.5315 70 3 -0.1894
-1.5315 70 4 -0.1820
-1.5315 70 5 -0.1742
-1.5315 70 6 -0.1712
-0.4901 70 </s> -0.3010
-1.8325 71 1 -0.2571
-1.8325 71 10 -0.1677
-1.8325 71 11 -0.1691
-1.8325 71 12 -0.1626
-1.8325 71 13 -0.1661
-1.8325 71 14 -0.1662
-1.8325 71 15 -0.1625
-1.8325 71 16 -0.1565
-1.8325 71 17 -0.1444
-1.8325 71 18 -0.1622
-1.8325 71 19 -0.1618
-1.8325 71 2 -0.2504
-1.8325 71 20 -0.1597
-1.8325 71 21 -0.1706
-1.8325 71 22 -0.1753
-1.8325 71 23 -0.1706
-1.8325 71 24 -0.1704
-1.8325 71 3 -0.1894
-1.8325 71 4 -0.1820
-1.8325 71 5 -0.1742
-1.8325 71 6 -0.1712
-1.8325 71 7 -0.1777
-1.8325 71 8 -0.1687
-1.8325 71 9 -0.1714
-0.8325 71 </s> -0.3010
-1.7482 72 1 -0.2571
-1.7482 72 10 -0.1677
-1.7482 72 11 -0.1691
-1.7482 72 12 -0.1626
-1.7482 72 13 -0.1661
